-2.902351692318916321e-02 1.092651020735502243e-02 1.546437572687864304e-02 5.252648517489433289e-02 -1.630571857094764709e-02 4.660811275243759155e-03 1.922442950308322906e-02 1.824568398296833038e-02 2.034609578549861908e-02 4.910373594611883163e-03 -7.983257994055747986e-03 8.586356788873672485e-02 -2.012711577117443085e-02 -7.075448986142873764e-03 3.230017377063632011e-03 9.711503051221370697e-03 -2.042322419583797455e-02 -1.459980290383100510e-02 -2.613145625218749046e-03 -2.061998005956411362e-03 -3.078596852719783783e-02 -2.862027287483215332e-02 -3.850491344928741455e-02 -1.463984046131372452e-02 -4.210847895592451096e-03 -1.117323711514472961e-02 5.250024423003196716e-02 -1.971822790801525116e-02 -1.004008296877145767e-02 -7.728471886366605759e-03 -1.494285184890031815e-02 -1.659640669822692871e-02 2.054561302065849304e-02 -2.572875842452049255e-02 3.343345969915390015e-02 -1.461502257734537125e-02 1.645893603563308716e-02 -9.016057476401329041e-03 6.324917543679475784e-03 -8.815282955765724182e-03 -5.894125998020172119e-02 7.569923182018101215e-04 -1.944830082356929779e-02 -1.787599921226501465e-02 4.575442522764205933e-02 -3.136994317173957825e-02 -1.658539660274982452e-02 -7.371081970632076263e-03 -1.335679925978183746e-02 7.685131393373012543e-03 -2.491659298539161682e-02 1.193275451660156250e-01 5.010347440838813782e-02 2.800077944993972778e-02 -1.801503635942935944e-02 7.831757515668869019e-02 -2.753804437816143036e-02 -1.488655898720026016e-02 3.116265498101711273e-02 5.834753811359405518e-02 -2.641936577856540680e-02 -5.988021846860647202e-03 -9.171407669782638550e-03 4.621559381484985352e-02 7.696700096130371094e-02 -1.013640314340591431e-02 5.640125647187232971e-02 -3.676845505833625793e-02 -1.016770210117101669e-02 7.036834489554166794e-03 -1.260952837765216827e-02 -1.253325608558952808e-03 1.732743345201015472e-02 -2.885549515485763550e-02 -6.031461991369724274e-03 -1.310866326093673706e-02 -2.351913601160049438e-02 1.119188615120947361e-03 -1.899251341819763184e-01 -4.779295995831489563e-02 -4.301853105425834656e-02 -8.165358565747737885e-03 -2.038970775902271271e-02 -1.413767575286328793e-03 -8.693068288266658783e-03 -7.151531521230936050e-03 -2.943221107125282288e-02 -3.577647032216191292e-03 -2.524937130510807037e-02 -1.638866588473320007e-02 9.401322458870708942e-04 -1.727686077356338501e-02 -1.171993017196655273e-01 -3.051682747900485992e-02 -1.715090475045144558e-04 5.473680421710014343e-02 4.046675562858581543e-02 -1.720827817916870117e-02 -2.441914752125740051e-02 -1.309477165341377258e-02 -4.509345162659883499e-03 -1.281307637691497803e-02 4.086764529347419739e-03 2.813299372792243958e-02 -7.056508213281631470e-03 6.440450088120996952e-04 1.915021613240242004e-02 -2.327950298786163330e-02 -1.401933655142784119e-02 -3.502983832731842995e-03 -1.307426020503044128e-03 6.654895842075347900e-03 1.125680096447467804e-02 -2.871288917958736420e-02 -3.688790136948227882e-03 -2.204589173197746277e-02 -1.574375852942466736e-02 -2.982409903779625893e-03 -2.112476341426372528e-02 -3.550411015748977661e-02 -9.232987649738788605e-03 -1.580367423593997955e-02 6.420524790883064270e-03 8.335975930094718933e-03 1.845216192305088043e-02 -5.781146511435508728e-02 -1.751951500773429871e-02 -1.616949215531349182e-02 -2.544411458075046539e-02 -6.423461716622114182e-03 -1.474810205399990082e-02 -8.168176747858524323e-03 -1.537247002124786377e-02 -1.449950877577066422e-02 2.419361658394336700e-02 -4.552891943603754044e-03 -7.787408772855997086e-03 -2.818845212459564209e-03 -1.501983217895030975e-02 1.145489141345024109e-02 -1.177630759775638580e-02 2.041479339823126793e-03 -2.194455638527870178e-02 1.791884191334247589e-03 1.662155613303184509e-02 -2.293393015861511230e-02 -1.721278205513954163e-02 -5.957271158695220947e-02 -3.240684047341346741e-02 -2.081254869699478149e-02 1.578318886458873749e-02 2.094423025846481323e-02 -2.114016190171241760e-02 -9.786085225641727448e-03 -6.844569742679595947e-02 5.694251507520675659e-02 4.539597034454345703e-02 -7.531968876719474792e-03 -1.967280916869640350e-02 7.152874022722244263e-02 -1.013116817921400070e-02 -2.286373823881149292e-02 -9.526959620416164398e-03 2.795349992811679840e-02 7.639703806489706039e-03 9.667709469795227051e-03 -1.169727928936481476e-02 -3.641045652329921722e-03 -5.875915754586458206e-03 -1.312916283495724201e-03 -1.649379543960094452e-02 -3.271873109042644501e-03 -1.046895701438188553e-02 -2.005826681852340698e-02 -1.761922799050807953e-02 -6.914494093507528305e-03 -4.225586727261543274e-02 -1.855373755097389221e-02 4.522085189819335938e-02 -4.734436515718698502e-03 -6.324983667582273483e-03 -6.369361281394958496e-02 -4.659745376557111740e-03 1.901492103934288025e-02 -9.159365668892860413e-03 -3.878882154822349548e-02 -1.472711190581321716e-02 -1.362314168363809586e-02 2.491943910717964172e-02 1.681853458285331726e-02 -1.586654596030712128e-02 -6.567451357841491699e-02 -1.350691635161638260e-02 -1.434828992933034897e-02 1.668591168709099293e-03 -1.492701005190610886e-02 -1.594212837517261505e-03 -8.358094841241836548e-03 -1.207408215850591660e-02 -1.668462902307510376e-02 -1.771957427263259888e-02 -2.092725224792957306e-02 -7.045180071145296097e-03 -1.039894297719001770e-02 -7.528726942837238312e-03 -1.889720931649208069e-02 -8.107228495646268129e-05 -6.058056280016899109e-02 1.352425944060087204e-02 -1.527705136686563492e-02 -6.805400550365447998e-02 -3.805505484342575073e-02 -8.206413127481937408e-03 -7.628695107996463776e-03 -2.237456478178501129e-02 -5.652825534343719482e-02 -1.344217103905975819e-03 -1.888664439320564270e-02 5.712651764042675495e-04 3.358075395226478577e-02 -3.720665117725729942e-03 -8.706148713827133179e-03 -4.752580134663730860e-04 -4.534146562218666077e-02 1.413686294108629227e-02 -1.734788529574871063e-02 2.694384381175041199e-02 9.198826737701892853e-03 -1.186353899538516998e-02 7.697334140539169312e-02 -1.863369531929492950e-02 2.831703424453735352e-02 -3.649190440773963928e-02 -6.961348000913858414e-03 -2.024889737367630005e-02 4.459375981241464615e-03 -5.537592992186546326e-02 5.219737067818641663e-03 2.178493188694119453e-03 -2.032771334052085876e-02 -5.938679911196231842e-03 -3.113076649606227875e-02 -7.841596007347106934e-02 -3.235277486965060234e-03 -1.331739686429500580e-02 -9.241009131073951721e-03 -1.500503346323966980e-02 2.461063712835311890e-01 2.811717242002487183e-02 -3.405137686058878899e-03 -2.841691486537456512e-03 -2.081194519996643066e-02 -1.572246104478836060e-02 4.277508333325386047e-02 -1.466982881538569927e-03 -3.921460360288619995e-02 1.462065614759922028e-02 -7.490084972232580185e-03 4.016700387001037598e-02 -4.651464894413948059e-02 2.563947439193725586e-02 6.476293317973613739e-03 -3.935443982481956482e-02 -5.887636169791221619e-02 -2.886020764708518982e-02 -2.610122598707675934e-02 4.172133747488260269e-03 4.923971369862556458e-02 -1.487615145742893219e-02 1.632513478398323059e-02 -1.950751617550849915e-02 -2.619079127907752991e-02 1.391980797052383423e-02 -3.100892528891563416e-02 5.538935959339141846e-02 -5.133623257279396057e-03 2.692045236472040415e-04 3.363425610587000847e-03 -3.975278232246637344e-03 -7.663227617740631104e-03 4.302196204662322998e-03 -1.816435158252716064e-02 7.906015962362289429e-03 -2.007067203521728516e-03 -1.577346213161945343e-02 -1.825790852308273315e-02 -1.612807065248489380e-02 2.145268255844712257e-03 -1.040258724242448807e-02 -8.612396568059921265e-02 -1.455430872738361359e-02 -1.651360467076301575e-02 -3.937148489058017731e-03 -5.192843265831470490e-03 -2.436584979295730591e-02 -5.117117892950773239e-03 -9.304364211857318878e-03 -1.957176998257637024e-02 5.381942261010408401e-03 -5.782773252576589584e-03 -5.581652745604515076e-03 -5.400951020419597626e-03 3.287624195218086243e-02 -1.303595900535583496e-01 1.528283022344112396e-02 -8.845770731568336487e-03 9.254720644094049931e-04 -3.526835143566131592e-02 -4.227117635309696198e-03 2.005934901535511017e-02 -6.092348694801330566e-02 1.363893877714872360e-02 -1.315903849899768829e-02 1.277553848922252655e-03 -2.022097073495388031e-02 -1.255292794667184353e-03 -5.311497021466493607e-03 2.890118397772312164e-03 -5.061498843133449554e-03 3.709402633830904961e-03 -3.840493271127343178e-03 1.474849507212638855e-02 -1.218744204379618168e-03 -7.220558822154998779e-02 -1.770174875855445862e-02 -1.120548974722623825e-02 -4.186674207448959351e-02 -3.203507512807846069e-02 1.933485691552050412e-07 -1.465667225420475006e-02 -1.283479854464530945e-02 -2.984807267785072327e-02 2.073146030306816101e-02 -9.152966551482677460e-03 -4.706760402768850327e-03 -2.663672156631946564e-02 -1.089668180793523788e-02 -7.942546159029006958e-02 1.163825974799692631e-03 1.326318550854921341e-02 -2.021590806543827057e-02 1.452652388252317905e-03 -1.605666242539882660e-02 -1.331201568245887756e-02 4.452267894521355629e-04 -7.415079046040773392e-03 -2.844600006937980652e-02 -2.723724767565727234e-02 -2.471367456018924713e-02 6.859076768159866333e-02 -3.041152842342853546e-02 4.320478811860084534e-02 -1.132647600024938583e-02 4.193506762385368347e-02 4.353249911218881607e-03 4.114716127514839172e-02 -2.880254760384559631e-02 -1.008299738168716431e-02 -1.100506633520126343e-02 -1.364566665142774582e-02 -1.428917888551950455e-02 1.865573227405548096e-02 2.277924306690692902e-02 4.659502953290939331e-02 1.656441204249858856e-02 -2.475035190582275391e-02 -2.373399958014488220e-02 -6.021808832883834839e-03 -2.306238003075122833e-02 -7.669597864151000977e-03 7.832781225442886353e-02 8.458584547042846680e-03 6.887688767164945602e-03 7.184562273323535919e-03 -1.532431039959192276e-02 5.178340710699558258e-03 5.117102060467004776e-03 7.191592361778020859e-03 7.885607890784740448e-03 6.892693042755126953e-02 -7.627789676189422607e-02 -8.411344140768051147e-03 2.763150725513696671e-03 -2.657267451286315918e-02
-4.653197899460792542e-02 1.984521746635437012e-02 8.657763898372650146e-02 5.055925622582435608e-02 -2.241533063352108002e-02 1.904239691793918610e-02 9.285085834562778473e-03 5.542499013245105743e-03 8.431103080511093140e-02 2.392859198153018951e-03 -9.161843918263912201e-03 1.367357522249221802e-01 -1.662142947316169739e-02 6.381878629326820374e-03 3.615654306486248970e-03 -3.231608495116233826e-02 -3.055609390139579773e-02 -1.901605911552906036e-02 -5.178146529942750931e-03 -7.615662179887294769e-03 -4.225757718086242676e-02 -3.947003930807113647e-02 -2.338635735213756561e-02 -1.510693505406379700e-02 -1.433980837464332581e-02 -1.006512250751256943e-02 7.218685001134872437e-02 1.590208150446414948e-02 -8.607060648500919342e-03 -1.457116752862930298e-02 -3.013027459383010864e-02 -2.945313416421413422e-02 8.105007000267505646e-03 -4.617768153548240662e-02 2.029507234692573547e-02 -1.772310212254524231e-02 3.399118036031723022e-02 -1.338893920183181763e-02 7.155426777899265289e-03 7.231133431196212769e-02 -5.952975153923034668e-02 2.449234249070286751e-03 -2.913610264658927917e-02 -1.943837665021419525e-02 1.062945872545242310e-01 -3.807798773050308228e-02 -1.061089988797903061e-02 -6.102566607296466827e-03 -2.449575439095497131e-02 -2.553975768387317657e-02 -1.250962447375059128e-02 1.987965852022171021e-01 9.695544838905334473e-02 2.280489355325698853e-02 -2.046125009655952454e-02 1.254027336835861206e-01 -3.398213908076286316e-02 -1.534910965710878372e-02 1.987971924245357513e-02 3.562576696276664734e-02 -4.456063732504844666e-02 -2.346515655517578125e-02 -2.284624846652150154e-03 6.276468187570571899e-02 1.301053017377853394e-01 -1.782338693737983704e-02 7.664258778095245361e-02 -2.955254539847373962e-02 -1.524099428206682205e-02 -1.457909238524734974e-03 -2.107761614024639130e-02 7.967320270836353302e-03 6.946608424186706543e-03 -2.320965193212032318e-02 -1.574079506099224091e-02 5.485092476010322571e-02 -3.484720364212989807e-02 5.296238511800765991e-02 -1.646426618099212646e-01 -5.161159485578536987e-02 -3.441051766276359558e-02 2.240245928987860680e-03 -1.344016380608081818e-02 -7.021586061455309391e-04 8.507465012371540070e-03 -3.875841386616230011e-03 -3.318286687135696411e-02 1.742636784911155701e-02 2.686879225075244904e-02 -1.635739393532276154e-02 -2.063599415123462677e-02 -2.793862670660018921e-02 -8.254046738147735596e-02 -1.158638624474406242e-03 1.303471475839614868e-01 9.085379540920257568e-02 6.461036950349807739e-02 -1.611635275185108185e-02 -2.825997397303581238e-02 -2.046905830502510071e-02 -4.886519163846969604e-03 -2.001045644283294678e-02 -1.673648133873939514e-03 3.553493693470954895e-02 -2.733922097831964493e-03 -2.685718704015016556e-03 -1.824714988470077515e-02 -2.416656166315078735e-02 -1.023046672344207764e-02 7.326848572120070457e-04 -4.057790338993072510e-02 9.129087440669536591e-03 1.238421350717544556e-02 -2.281638048589229584e-02 -2.744141733273863792e-03 -3.211085125803947449e-02 -3.648204728960990906e-02 -1.285015977919101715e-02 -2.593988552689552307e-02 -3.802841529250144958e-02 -1.359569374471902847e-02 -2.634483389556407928e-02 -3.417602973058819771e-03 -1.966744288802146912e-02 -5.489945411682128906e-02 -6.537837535142898560e-02 -1.334331743419170380e-02 -1.581722870469093323e-02 -2.786690928041934967e-02 -1.443496253341436386e-02 -1.493821106851100922e-02 -1.142653822898864746e-02 -1.646783947944641113e-02 -6.969980429857969284e-03 5.386533960700035095e-02 -7.064418401569128036e-03 -2.030955627560615540e-02 -4.840357229113578796e-03 -1.995214074850082397e-02 8.766930550336837769e-03 -1.690076664090156555e-02 3.364602476358413696e-02 -1.869651861488819122e-02 -7.772206794470548630e-03 1.971228234469890594e-02 -2.776063792407512665e-02 -3.368158265948295593e-02 -8.253483474254608154e-02 -2.796741575002670288e-02 -2.403753064572811127e-02 3.814192721620202065e-03 2.879315055906772614e-02 -2.361368946731090546e-02 -3.284814208745956421e-02 -1.379107385873794556e-01 3.889338299632072449e-02 3.475409746170043945e-02 -5.870340974070131779e-04 -2.570423856377601624e-02 8.606352657079696655e-02 -1.120224595069885254e-02 -2.591713145375251770e-02 -9.446570649743080139e-03 5.955673754215240479e-02 8.202793076634407043e-03 -5.478761624544858932e-03 6.737473607063293457e-02 -5.080733913928270340e-03 -1.388038881123065948e-02 2.284703310579061508e-03 1.914240233600139618e-02 -1.019759289920330048e-02 3.693800827022641897e-04 -4.223340749740600586e-02 -5.300607532262802124e-03 -1.800509914755821228e-02 -6.462757289409637451e-02 -4.469955340027809143e-02 6.747600436210632324e-02 -4.600413609296083450e-03 -8.503489196300506592e-03 -1.261161863803863525e-01 -7.037952542304992676e-02 2.088787220418453217e-02 -1.227782294154167175e-02 -4.788451269268989563e-02 -2.319828793406486511e-02 -1.985609717667102814e-02 2.225289493799209595e-02 2.183533273637294769e-02 -2.162901312112808228e-02 -7.130191475152969360e-02 -3.615922480821609497e-02 -2.027183957397937775e-02 2.033987781032919884e-03 -2.447829209268093109e-02 -9.998275898396968842e-03 -7.905240170657634735e-03 -8.532303618267178535e-04 -1.554618123918771744e-02 -2.454368956387042999e-02 -3.532255440950393677e-02 1.130867563188076019e-02 -5.280664563179016113e-02 -1.593952812254428864e-02 -2.414874359965324402e-02 4.156862851232290268e-03 -6.613387912511825562e-02 4.620135761797428131e-03 -2.072857692837715149e-02 -8.325970917940139771e-02 -4.708158597350120544e-02 -9.877853095531463623e-03 -1.179618109017610550e-02 -2.198315598070621490e-02 -7.715740799903869629e-02 -4.039911925792694092e-02 -1.468520611524581909e-02 -3.600989934056997299e-03 5.988904461264610291e-02 -5.917756352573633194e-03 -1.249776501208543777e-02 -3.707944881170988083e-03 -3.180682659149169922e-02 3.968800976872444153e-02 -3.163306042551994324e-02 -1.007072813808917999e-02 -1.181983738206326962e-03 1.036744471639394760e-02 1.446838229894638062e-01 -2.622845210134983063e-02 6.271546334028244019e-02 -4.297867044806480408e-02 -9.895480237901210785e-03 -3.488004952669143677e-02 9.893996641039848328e-03 -3.747148811817169189e-02 3.085200302302837372e-02 9.889626875519752502e-03 -1.475633867084980011e-02 -1.446855603717267513e-03 -1.929958723485469818e-02 -1.198159083724021912e-01 -3.133978927507996559e-03 -1.616569235920906067e-02 -1.114489883184432983e-02 1.145766749978065491e-01 5.229284763336181641e-01 5.082505568861961365e-02 -1.022744178771972656e-02 -3.806565422564744949e-03 -2.495010010898113251e-02 -1.781096123158931732e-02 4.895244538784027100e-02 -2.012616023421287537e-03 -7.413375377655029297e-02 2.178377844393253326e-02 8.404689142480492592e-04 2.197790332138538361e-02 -9.989064186811447144e-02 1.492567267268896103e-02 3.327921032905578613e-02 -3.489654138684272766e-02 -7.035101950168609619e-02 -3.370075672864913940e-02 -3.408749774098396301e-02 -1.659271772950887680e-03 7.477869093418121338e-02 -5.243775621056556702e-02 2.362308837473392487e-02 -2.537125349044799805e-02 -4.154084622859954834e-02 -1.135580940172076225e-03 -2.611086890101432800e-02 8.494496345520019531e-02 -5.932989995926618576e-03 -7.077518850564956665e-03 1.048421766608953476e-02 2.231380436569452286e-03 4.391560796648263931e-03 7.501753047108650208e-03 -2.879705280065536499e-02 2.999196760356426239e-02 -1.499856822192668915e-02 -1.186277158558368683e-02 -2.397497557103633881e-02 -2.430870756506919861e-02 -8.550276106689125299e-05 -1.429813914000988007e-02 -1.185592040419578552e-01 -1.854120381176471710e-02 -2.727565541863441467e-02 -3.096691332757472992e-03 2.169823087751865387e-02 -5.613382160663604736e-02 -1.857001148164272308e-02 -1.197359059005975723e-02 -2.854666300117969513e-02 4.525555763393640518e-03 -8.346932008862495422e-03 -1.136464811861515045e-02 2.692243084311485291e-03 2.901201322674751282e-02 -9.957537055015563965e-02 -5.409738980233669281e-03 -6.492580287158489227e-03 -4.803175106644630432e-03 -3.990922123193740845e-02 -1.101058442145586014e-02 1.036716904491186142e-02 -7.390225678682327271e-02 1.122554298490285873e-02 -1.862775161862373352e-02 1.261875033378601074e-02 -1.843509636819362640e-02 -2.932286588475108147e-03 -1.369168236851692200e-02 1.135123777203261852e-03 -1.440977305173873901e-02 -6.519912742078304291e-03 2.823773305863142014e-03 1.658642478287220001e-02 8.573387749493122101e-03 -1.010427623987197876e-01 -1.648787222802639008e-02 -7.659976836293935776e-03 -4.909269884228706360e-02 -4.592255875468254089e-02 -1.810982450842857361e-02 -2.548964694142341614e-02 -1.556650828570127487e-02 -3.365756571292877197e-02 1.668424345552921295e-02 -1.568993553519248962e-02 -2.419160446152091026e-03 -4.608856886625289917e-02 -1.402939669787883759e-02 -1.230664849281311035e-01 -8.277988061308860779e-03 4.766923934221267700e-02 -2.640936709940433502e-02 -1.100269146263599396e-03 -1.995396055281162262e-02 -1.046677771955728531e-02 -3.419420681893825531e-05 -6.152497138828039169e-03 -8.173013105988502502e-03 -1.967490464448928833e-02 -4.086500778794288635e-02 6.654154509305953979e-02 -1.776827871799468994e-02 1.080769971013069153e-01 -2.415145561099052429e-02 5.453670024871826172e-02 5.161131266504526138e-03 1.451100260019302368e-01 -5.180533975362777710e-02 -1.347871217876672745e-02 -1.347416895441710949e-03 -1.078501064330339432e-02 -2.408374845981597900e-02 1.197165227495133877e-03 3.467804566025733948e-02 1.058841496706008911e-01 1.593487337231636047e-02 -4.220185428857803345e-02 -3.144063428044319153e-02 6.421539001166820526e-03 -2.899318560957908630e-02 2.695601619780063629e-02 7.753192633390426636e-02 2.550165168941020966e-03 -3.546989057213068008e-03 9.485337068326771259e-04 -2.233428880572319031e-02 1.039788406342267990e-02 2.247494086623191833e-02 -2.936136734206229448e-04 3.672199090942740440e-03 1.285784989595413208e-01 -7.814437150955200195e-02 -7.717530708760023117e-03 7.630214677192270756e-04 -3.410225361585617065e-02
-3.344295546412467957e-02 2.593024447560310364e-02 2.324086129665374756e-01 6.506220996379852295e-02 -2.157310955226421356e-02 2.579488418996334076e-02 -1.424886379390954971e-02 1.374474074691534042e-02 2.727078460156917572e-02 -1.440078922314569354e-04 -1.234821230173110962e-02 -1.570318266749382019e-02 -3.138314187526702881e-02 -9.361046366393566132e-03 1.123219542205333710e-02 -4.778660088777542114e-02 -6.746650487184524536e-02 -1.799964345991611481e-02 -5.732728168368339539e-03 -9.249933995306491852e-03 -5.229161679744720459e-02 -3.752745315432548523e-02 -3.814263641834259033e-02 -1.736983843147754669e-02 -2.397632412612438202e-02 -1.049363613128662109e-02 2.403606474399566650e-02 -3.067997284233570099e-03 -1.575724408030509949e-02 -1.477713324129581451e-02 -3.191751241683959961e-02 -2.051566727459430695e-02 -2.731240354478359222e-03 -5.619368702173233032e-02 3.195013105869293213e-02 -2.513274177908897400e-02 1.477407850325107574e-02 -2.236710116267204285e-02 4.149329382926225662e-03 1.574377268552780151e-01 -7.467888295650482178e-02 -2.216293709352612495e-03 -4.899249225854873657e-02 -2.256961539387702942e-02 1.906270980834960938e-01 -6.070070341229438782e-02 -1.057299319654703140e-02 -9.271985851228237152e-03 -2.690663188695907593e-02 -4.108577221632003784e-02 7.067200541496276855e-02 2.714804410934448242e-01 1.487457007169723511e-01 7.061398029327392578e-02 -2.482485771179199219e-02 2.159224450588226318e-01 -3.168922662734985352e-02 -9.119367226958274841e-03 -5.420917295850813389e-04 -4.145076032727956772e-03 -5.645829811692237854e-02 -2.626332081854343414e-02 9.222046355716884136e-04 9.447606652975082397e-02 1.352715790271759033e-01 -2.234127372503280640e-02 1.124201789498329163e-01 -6.875618128105998039e-04 -1.534945517778396606e-02 -5.768408067524433136e-03 -1.078923791646957397e-02 8.045170456171035767e-03 -2.784228650853037834e-03 -3.659654781222343445e-02 -6.024897098541259766e-02 1.062037795782089233e-02 -3.934272378683090210e-02 1.741731911897659302e-02 -2.308163493871688843e-01 -7.856623083353042603e-02 -1.987008191645145416e-02 -4.478780552744865417e-03 -3.788124769926071167e-02 -7.923945784568786621e-03 -1.223336532711982727e-02 -4.973872564733028412e-03 -5.063514411449432373e-02 4.998409422114491463e-04 9.372252970933914185e-02 -1.863344758749008179e-02 -2.011778205633163452e-02 -2.725518494844436646e-02 -9.003908187150955200e-02 -3.952923417091369629e-02 7.384935021400451660e-02 1.247991323471069336e-01 9.968578070402145386e-02 -3.584600985050201416e-02 -3.033773973584175110e-02 -2.265664376318454742e-02 -9.917951188981533051e-03 -3.220255672931671143e-02 1.617608941160142422e-03 5.354951694607734680e-02 -2.300300635397434235e-02 -7.148838136345148087e-03 7.208830211311578751e-03 -2.663686498999595642e-02 -2.120823413133621216e-02 -7.368970196694135666e-03 -3.692613169550895691e-02 1.424307655543088913e-02 2.052866108715534210e-02 -3.374857455492019653e-02 -6.684981752187013626e-03 -3.534410893917083740e-02 -2.891060523688793182e-02 -3.948830533772706985e-03 -3.115783818066120148e-02 -3.857083246111869812e-02 -4.097687453031539917e-02 -5.340581387281417847e-02 -1.438281591981649399e-02 -1.923789456486701965e-02 -1.808440089225769043e-01 -6.463900953531265259e-02 -9.612325578927993774e-03 -1.254544965922832489e-02 -3.260592371225357056e-02 -9.493454359471797943e-03 -1.556411851197481155e-02 -1.174951251596212387e-02 -2.421212382614612579e-02 2.637845650315284729e-02 6.532642245292663574e-02 -8.155856281518936157e-03 -1.622528210282325745e-02 -1.116743218153715134e-02 -2.426125109195709229e-02 -1.640700502321124077e-03 -1.692374981939792633e-02 3.304196149110794067e-02 -3.217509016394615173e-02 -1.901588030159473419e-02 1.981742493808269501e-02 -2.686277590692043304e-02 -7.017949223518371582e-02 -9.956945478916168213e-02 -3.496331349015235901e-02 -4.214363545179367065e-02 -8.650068193674087524e-03 2.879079058766365051e-02 -2.607666701078414917e-02 -3.771123290061950684e-02 -2.203292250633239746e-01 5.922186747193336487e-02 -5.332903470844030380e-03 -5.649376194924116135e-03 -2.690760791301727295e-02 2.320287674665451050e-01 -7.806442212313413620e-03 -3.114356100559234619e-02 -9.946474805474281311e-03 -1.244829222559928894e-02 4.704903345555067062e-03 -8.045521564781665802e-03 1.289390325546264648e-01 -7.427677512168884277e-03 -1.789879612624645233e-02 4.209499340504407883e-03 6.256905198097229004e-02 -1.287897396832704544e-02 -8.178021758794784546e-03 -2.445696294307708740e-02 -5.946529563516378403e-03 -2.796527743339538574e-02 -1.594030484557151794e-02 -5.512777343392372131e-02 7.602529227733612061e-02 -8.048481307923793793e-03 -1.553183980286121368e-02 -1.421080678701400757e-01 -8.548273891210556030e-02 1.652850210666656494e-02 -8.546211756765842438e-03 -4.995775222778320312e-02 -3.090319223701953888e-02 -1.288531930185854435e-03 1.313156187534332275e-01 2.331113629043102264e-02 -2.410988509654998779e-02 -7.675282657146453857e-02 -5.218583345413208008e-02 -2.580350823700428009e-02 -1.496586296707391739e-02 -1.066565699875354767e-02 -1.280302833765745163e-02 -8.628902025520801544e-03 9.101426228880882263e-03 -1.325537450611591339e-02 -2.720975689589977264e-02 -3.087411448359489441e-02 -3.544253855943679810e-02 -4.528594762086868286e-02 -2.891463227570056915e-02 -2.826919779181480408e-02 1.378797367215156555e-02 -7.704682648181915283e-02 3.242523176595568657e-03 -2.244431339204311371e-02 -9.282059222459793091e-02 -7.682316750288009644e-02 -1.571116782724857330e-02 -2.323392406105995178e-02 -1.675230450928211212e-02 -1.333460211753845215e-01 -6.033136323094367981e-02 -9.932462126016616821e-03 1.206119544804096222e-02 8.117788285017013550e-02 -1.156860776245594025e-02 -2.294446900486946106e-02 -1.279293093830347061e-03 -5.635787546634674072e-02 4.095122218132019043e-02 -4.354187101125717163e-02 -5.336686968803405762e-03 -8.509294129908084869e-04 -2.076744101941585541e-02 9.089212119579315186e-02 -3.201314434409141541e-02 1.168580204248428345e-01 -4.266690462827682495e-02 -1.536384597420692444e-02 -6.136476993560791016e-02 2.336126007139682770e-02 -1.170601844787597656e-01 -3.579143667593598366e-03 1.027242988348007202e-01 -3.297090157866477966e-02 -3.402040526270866394e-02 -2.839170396327972412e-02 -1.400932073593139648e-01 6.334959762170910835e-04 -2.923558652400970459e-02 -1.348424889147281647e-02 8.463568240404129028e-02 7.173561453819274902e-01 7.732356339693069458e-02 -1.461569499224424362e-02 -6.047793664038181305e-03 -2.719031833112239838e-02 -3.014715947210788727e-02 1.912251561880111694e-01 -3.438511397689580917e-03 -7.912246137857437134e-02 6.475389003753662109e-02 -6.933306809514760971e-03 4.121508821845054626e-02 -1.000641509890556335e-01 3.590196371078491211e-02 1.926487684249877930e-01 -3.560373559594154358e-02 -8.180721849203109741e-02 -8.360465988516807556e-03 -4.115900769829750061e-02 -9.722916292957961559e-04 1.039791554212570190e-01 -1.041174605488777161e-01 6.836662441492080688e-02 -3.126000985503196716e-02 -7.003168761730194092e-02 -3.854377940297126770e-02 -4.141455516219139099e-02 6.645496189594268799e-02 -1.111802645027637482e-02 -9.341494180262088776e-03 -5.857274867594242096e-03 1.462861336767673492e-02 -8.625746704638004303e-03 2.227098681032657623e-02 -2.834457904100418091e-02 6.043519824743270874e-02 -1.713857799768447876e-02 -9.433804079890251160e-03 -2.958713471889495850e-02 -4.116655141115188599e-02 9.105667471885681152e-03 -2.562016434967517853e-02 -1.273999661207199097e-01 -6.644137203693389893e-03 -4.225829616189002991e-02 -2.287654019892215729e-02 -3.294683992862701416e-02 -6.633115559816360474e-02 -3.855222836136817932e-02 -7.958886213600635529e-03 -1.670740917325019836e-02 -2.231984399259090424e-02 -2.289625257253646851e-02 -1.399830263108015060e-02 -8.328535594046115875e-03 1.181386178359389305e-03 -1.315111964941024780e-01 -1.921155303716659546e-02 -4.100353457033634186e-03 -5.873785354197025299e-03 -4.851476475596427917e-02 -5.689501762390136719e-03 2.383232116699218750e-03 -6.134777888655662537e-02 1.014175824820995331e-02 -2.479049004614353180e-02 3.597751632332801819e-02 -2.351526916027069092e-02 6.891227327287197113e-03 -1.362373586744070053e-02 -1.711235195398330688e-02 -1.450787391513586044e-02 -1.853818446397781372e-02 8.195177651941776276e-03 5.053204949945211411e-03 -2.262913156300783157e-03 -1.376594305038452148e-01 -2.887454628944396973e-02 -1.535141188651323318e-02 -4.017645865678787231e-02 -5.864731222391128540e-02 -5.075411126017570496e-02 -6.406464427709579468e-02 -1.478174421936273575e-02 -4.068704694509506226e-02 -4.492136649787425995e-03 -1.525400113314390182e-02 -8.888928568921983242e-04 -4.582326859235763550e-02 -2.148321829736232758e-02 -9.789361804723739624e-02 -9.968268685042858124e-03 2.791024558246135712e-02 -3.716543689370155334e-02 1.592370495200157166e-02 -1.922956854104995728e-02 -7.288908120244741440e-03 -2.195482701063156128e-02 -1.582040823996067047e-02 -3.102781251072883606e-02 -1.695834659039974213e-02 -4.568811878561973572e-02 1.960725523531436920e-02 -6.226253136992454529e-02 2.491391599178314209e-01 -2.765944972634315491e-02 9.777244925498962402e-02 -4.087254637852311134e-04 1.694013625383377075e-01 -6.354149430990219116e-02 -6.754905334673821926e-04 -8.884787559509277344e-03 -2.056013047695159912e-02 -2.795256674289703369e-02 -3.293946152552962303e-03 3.084498271346092224e-02 5.318544805049896240e-02 -2.576107345521450043e-02 -7.495826482772827148e-02 -2.461816929280757904e-02 3.277608752250671387e-02 -2.491726167500019073e-02 1.022090669721364975e-02 2.943337336182594299e-02 2.769004786387085915e-03 1.225998532027006149e-02 8.384078741073608398e-03 -2.342708222568035126e-02 -6.434045732021331787e-03 2.604641020298004150e-02 1.328414073213934898e-04 -6.157719064503908157e-03 1.443758457899093628e-01 -8.682040125131607056e-02 -7.049433887004852295e-03 -9.487937204539775848e-03 -3.731111064553260803e-02
-1.999776251614093781e-02 5.940085649490356445e-02 4.676795303821563721e-01 1.090165898203849792e-01 -1.802468299865722656e-02 4.650786146521568298e-02 -4.245714843273162842e-02 2.073756605386734009e-02 -8.617457002401351929e-03 3.525243699550628662e-02 -2.614231035113334656e-02 -1.018061768263578415e-03 -3.203354775905609131e-02 -3.005562815815210342e-03 -4.954329691827297211e-03 -5.439021810889244080e-02 -8.445069193840026855e-02 -2.018367685377597809e-02 -1.949463598430156708e-02 -1.057211961597204208e-02 -6.632570177316665649e-02 -4.482766985893249512e-02 -4.592720046639442444e-02 -1.603479124605655670e-02 -2.163364924490451813e-02 -3.003853559494018555e-02 -4.466156661510467529e-02 -2.287547662854194641e-02 -2.025677077472209930e-02 -1.645406894385814667e-02 -3.932539746165275574e-02 -4.019205272197723389e-02 -1.064944174140691757e-02 -8.210704475641250610e-02 -1.178950420580804348e-03 -2.137856930494308472e-02 5.002904435968957841e-05 -2.336226031184196472e-02 -3.341492265462875366e-03 2.366731315851211548e-01 -8.077993988990783691e-02 -8.439638768322765827e-04 -5.488444864749908447e-02 -3.278969228267669678e-02 2.983807325363159180e-01 -7.482675462961196899e-02 -2.142244018614292145e-03 -7.357492297887802124e-02 -2.391173876821994781e-02 -4.071520641446113586e-02 7.312861084938049316e-02 5.648694634437561035e-01 2.432670891284942627e-01 1.574248373508453369e-01 -2.180665172636508942e-02 2.679120004177093506e-01 -4.834017530083656311e-02 -1.245262939482927322e-02 -3.962285351008176804e-03 -2.529368922114372253e-02 -6.375636160373687744e-02 -2.514335885643959045e-02 1.769350096583366394e-02 2.065565139055252075e-01 2.202038466930389404e-01 -2.013294771313667297e-02 5.795669183135032654e-02 -3.407590091228485107e-02 -1.495526824146509171e-02 -1.072028372436761856e-02 -2.898395620286464691e-02 -5.513779353350400925e-03 -3.879518189933151007e-04 -3.954916074872016907e-02 -8.969542384147644043e-02 -5.091517046093940735e-02 -3.859923034906387329e-02 -1.483639888465404510e-02 -1.740940809249877930e-01 -1.209385097026824951e-01 -4.624601081013679504e-02 -4.444065503776073456e-03 -4.423076659440994263e-02 -1.260717120021581650e-02 -8.817519061267375946e-03 -8.865464478731155396e-03 -6.854208558797836304e-02 -5.180936306715011597e-03 -2.044213935732841492e-02 -2.247718162834644318e-02 -1.851950772106647491e-02 -4.116532206535339355e-02 -1.053314954042434692e-01 -4.155288916081190109e-04 -1.974178105592727661e-02 1.810058653354644775e-01 1.110224649310112000e-01 -4.553999006748199463e-02 -3.332484140992164612e-02 -2.696033380925655365e-02 -4.248396493494510651e-03 -3.983027860522270203e-02 -2.129574865102767944e-02 1.301556527614593506e-01 -4.776693414896726608e-03 -9.019283577799797058e-03 -7.930998690426349640e-03 -1.685383915901184082e-02 -1.152659393846988678e-02 -1.768600568175315857e-02 -3.863455727696418762e-02 3.056204319000244141e-02 4.355404153466224670e-02 -4.039627686142921448e-02 -7.939040660858154297e-03 -3.072550892829895020e-02 -5.427446216344833374e-02 -6.098362617194652557e-03 -6.139626353979110718e-02 -3.448307141661643982e-02 -4.744118824601173401e-02 -7.162849605083465576e-02 -1.510954834520816803e-02 -1.820104382932186127e-02 -2.132048010826110840e-01 -8.530335128307342529e-02 -2.679259888827800751e-02 -1.131895557045936584e-02 -4.047603905200958252e-02 -3.525248542428016663e-02 -1.240257825702428818e-02 -1.734469458460807800e-02 -2.976296469569206238e-02 -2.908008545637130737e-02 1.063268929719924927e-01 -1.113126240670681000e-02 -9.487234055995941162e-03 -2.122247964143753052e-02 -2.541363611817359924e-02 -6.713353563100099564e-03 -2.078209631145000458e-02 -1.230611652135848999e-02 -3.186167776584625244e-02 -2.330675534904003143e-02 -1.470286370022222400e-04 -3.887337818741798401e-02 -9.908745437860488892e-02 -1.071408987045288086e-01 -2.356433123350143433e-02 -4.950419068336486816e-02 -1.234877575188875198e-02 7.867772877216339111e-02 -3.322753310203552246e-02 -4.645168036222457886e-02 -2.427446991205215454e-01 2.242263173684477806e-03 -1.570401899516582489e-02 -1.529585942625999451e-02 -3.130508959293365479e-02 3.858899474143981934e-01 -2.056686952710151672e-02 -2.567181363701820374e-02 -1.566584967076778412e-02 -3.508710861206054688e-02 1.937739737331867218e-02 -2.197868935763835907e-02 1.732534021139144897e-01 -7.616644259542226791e-03 -3.035909496247768402e-02 -3.145134309306740761e-03 1.358438134193420410e-01 -2.646950259804725647e-02 -6.238091271370649338e-03 -1.122119091451168060e-02 -7.977288914844393730e-04 -2.801142260432243347e-02 -2.336428128182888031e-02 -5.715110898017883301e-02 7.628950476646423340e-02 -1.074604224413633347e-02 -1.228669472038745880e-02 -1.608484387397766113e-01 -1.004602015018463135e-01 -1.686876639723777771e-02 -1.547413319349288940e-02 -5.194750428199768066e-02 -3.122791647911071777e-02 -2.591248834505677223e-03 1.584731042385101318e-01 3.763148561120033264e-03 -2.691655047237873077e-02 -1.010803803801536560e-01 -5.325087904930114746e-02 -2.509078197181224823e-02 -1.257679704576730728e-02 -9.674371220171451569e-03 -1.852452941238880157e-02 -8.864578790962696075e-03 2.627599611878395081e-02 -1.628889329731464386e-02 -2.597439102828502655e-02 -3.422918915748596191e-02 -7.390589267015457153e-02 -7.205917686223983765e-02 -3.790457174181938171e-02 -3.810035809874534607e-02 1.119836117140948772e-03 -9.380331635475158691e-02 -2.974192379042506218e-03 -1.723967492580413818e-02 -9.282375127077102661e-02 -1.088588237762451172e-01 -1.561281736940145493e-02 -2.681023254990577698e-02 -2.714340575039386749e-02 -1.364878714084625244e-01 -4.627113416790962219e-02 -1.325019355863332748e-02 -3.436516737565398216e-03 1.118051037192344666e-01 -1.324745453894138336e-02 -2.857038192451000214e-02 -3.000719239935278893e-03 -8.122662454843521118e-02 7.993436604738235474e-02 -4.471909254789352417e-02 -7.290142122656106949e-03 -3.487703157588839531e-03 -1.997549459338188171e-02 1.516945511102676392e-01 -4.603185132145881653e-02 5.118399485945701599e-02 -8.106664568185806274e-02 -1.719900034368038177e-02 -7.382363080978393555e-02 1.347688771784305573e-02 -1.246125251054763794e-01 -1.250365097075700760e-02 1.775714457035064697e-01 -3.790955245494842529e-02 -5.135628208518028259e-02 -3.292515873908996582e-02 -1.724932640790939331e-01 -2.661268785595893860e-02 -3.759741038084030151e-02 -1.154903788119554520e-02 9.547043591737747192e-02 1.277757167816162109e+00 1.140943393111228943e-01 -3.224058449268341064e-02 -1.058913883753120899e-03 -2.893460914492607117e-02 -3.069882467389106750e-02 1.682826280593872070e-01 -4.571881145238876343e-02 -1.021494492888450623e-01 1.595502346754074097e-01 -1.103901397436857224e-02 -2.078105695545673370e-02 -9.117984771728515625e-02 -1.939983107149600983e-03 2.811811864376068115e-01 -5.208244919776916504e-02 -1.203364208340644836e-01 -2.505735307931900024e-02 -4.846929013729095459e-02 -2.663893857970833778e-03 2.097731083631515503e-01 -1.242984011769294739e-01 1.073677539825439453e-01 -5.261766165494918823e-02 -6.335377693176269531e-02 -5.067577213048934937e-02 -5.631054192781448364e-02 -8.660328574478626251e-03 -5.293906107544898987e-02 -3.755128011107444763e-03 -1.833194866776466370e-02 5.629028892144560814e-04 -1.467460300773382187e-02 3.711203858256340027e-02 -2.399973198771476746e-02 2.772691659629344940e-02 -4.451691731810569763e-02 -1.539914775639772415e-02 -3.429718688130378723e-02 -4.026522487401962280e-02 -1.433648727834224701e-02 -4.152535647153854370e-02 -1.197666898369789124e-01 -1.318605709820985794e-02 -3.181975707411766052e-02 -2.551998384296894073e-02 -4.990562796592712402e-02 -6.852302700281143188e-02 -2.552110888063907623e-02 -1.723873242735862732e-02 -2.105577103793621063e-02 -3.275194019079208374e-02 -2.051701769232749939e-02 -8.292381651699542999e-03 -2.934374287724494934e-02 -6.200304254889488220e-03 -1.152942851185798645e-01 -3.225457295775413513e-02 -1.826710626482963562e-02 -1.240691822022199631e-02 -5.026044696569442749e-02 -2.363625913858413696e-03 -5.185931175947189331e-02 -6.010726094245910645e-02 -1.333835767582058907e-03 -3.129012510180473328e-02 7.087155431509017944e-02 -4.088018834590911865e-02 -3.980687819421291351e-03 -2.412659302353858948e-02 -3.240675106644630432e-02 -1.446867920458316803e-02 -2.156722359359264374e-02 3.098820708692073822e-02 -2.286730334162712097e-02 -1.875982992351055145e-02 -1.564908921718597412e-01 -1.899320818483829498e-02 -1.940729282796382904e-02 -5.065402016043663025e-02 -7.166778296232223511e-02 -3.882195055484771729e-02 -7.223783433437347412e-02 -2.215372584760189056e-02 -4.088386520743370056e-02 -1.445362530648708344e-02 -1.608129963278770447e-02 -1.531781308585777879e-04 -6.741739064455032349e-02 -2.354880794882774353e-02 -9.264278411865234375e-02 -1.409420371055603027e-02 -1.083231065422296524e-02 -5.427727475762367249e-02 7.510539889335632324e-02 -2.107661776244640350e-02 -1.184124499559402466e-02 -7.245387881994247437e-02 -3.781159594655036926e-02 -1.387439575046300888e-02 -2.042926847934722900e-02 -4.366162419319152832e-02 1.141752675175666809e-02 -8.733350783586502075e-02 3.379352092742919922e-01 -3.357278555631637573e-02 6.592973321676254272e-02 -2.690025139600038528e-03 2.080216854810714722e-01 -6.713460385799407959e-02 -1.018803380429744720e-02 -2.103594504296779633e-02 -3.369140625000000000e-02 -2.857809886336326599e-02 -1.612446643412113190e-02 6.583972275257110596e-02 -9.778908453881740570e-03 -5.225742235779762268e-02 -8.771882951259613037e-02 -1.433713082224130630e-02 2.390406589256599545e-04 -3.961628302931785583e-02 -5.292896181344985962e-02 -3.184268996119499207e-02 -2.741405507549643517e-03 -3.254480287432670593e-02 -2.163384482264518738e-02 -2.748329192399978638e-02 5.073026986792683601e-04 6.399508565664291382e-02 -2.034338103840127587e-04 -2.662326768040657043e-02 1.456764638423919678e-01 -1.017496064305305481e-01 -1.641530543565750122e-02 -8.704817853868007660e-03 -6.295862048864364624e-02
-1.989024318754673004e-02 5.940085649490356445e-02 4.676795303821563721e-01 1.090165898203849792e-01 -1.802468299865722656e-02 4.650786146521568298e-02 -4.242764785885810852e-02 2.073756605386734009e-02 -8.617457002401351929e-03 3.525243699550628662e-02 -2.614231035113334656e-02 -1.018061768263578415e-03 -3.203354775905609131e-02 -3.005562815815210342e-03 -4.954329691827297211e-03 -5.439021810889244080e-02 -8.445069193840026855e-02 -2.018367685377597809e-02 -1.949463598430156708e-02 -1.057211961597204208e-02 -6.632570177316665649e-02 -4.482766985893249512e-02 -4.592720046639442444e-02 -1.603479124605655670e-02 -2.164858207106590271e-02 -3.003853559494018555e-02 -4.466156661510467529e-02 -2.287547662854194641e-02 -2.025677077472209930e-02 -1.645406894385814667e-02 -3.932539746165275574e-02 -4.019205272197723389e-02 -1.064944174140691757e-02 -8.210704475641250610e-02 -1.178950420580804348e-03 -2.137856930494308472e-02 1.060707363649271429e-04 -2.336226031184196472e-02 -3.341492265462875366e-03 2.367191165685653687e-01 -8.077993988990783691e-02 -8.282053167931735516e-04 -5.534403026103973389e-02 -3.278969228267669678e-02 2.983807325363159180e-01 -7.482675462961196899e-02 -2.142244018614292145e-03 -7.357492297887802124e-02 -2.391173876821994781e-02 -4.071520641446113586e-02 7.312861084938049316e-02 5.648694634437561035e-01 2.432670891284942627e-01 1.574248373508453369e-01 -2.180665172636508942e-02 2.679120004177093506e-01 -4.834017530083656311e-02 -1.245262939482927322e-02 -3.962285351008176804e-03 -2.529368922114372253e-02 -6.375636160373687744e-02 -2.501954138278961182e-02 1.769492775201797485e-02 2.065565139055252075e-01 2.202038466930389404e-01 -2.013294771313667297e-02 5.795669183135032654e-02 -3.407590091228485107e-02 -1.495526824146509171e-02 -1.072028372436761856e-02 -2.898395620286464691e-02 -5.521701183170080185e-03 -3.879518189933151007e-04 -3.954916074872016907e-02 -8.969542384147644043e-02 -5.091517046093940735e-02 -3.859923034906387329e-02 -1.483639888465404510e-02 -1.740218102931976318e-01 -1.209385097026824951e-01 -4.624601081013679504e-02 -4.444065503776073456e-03 -4.423076659440994263e-02 -1.260717120021581650e-02 -8.817519061267375946e-03 -8.865464478731155396e-03 -6.854208558797836304e-02 -5.180936306715011597e-03 -2.044213935732841492e-02 -2.247718162834644318e-02 -1.851950772106647491e-02 -4.116532206535339355e-02 -1.053723767399787903e-01 -4.577767685987055302e-04 -1.974178105592727661e-02 1.810058653354644775e-01 1.110224649310112000e-01 -4.553999006748199463e-02 -3.332484140992164612e-02 -2.696033380925655365e-02 -4.248396493494510651e-03 -3.983027860522270203e-02 -2.129513584077358246e-02 1.301556527614593506e-01 -4.776693414896726608e-03 -9.019283577799797058e-03 -7.930998690426349640e-03 -1.685383915901184082e-02 -1.152659393846988678e-02 -1.770230010151863098e-02 -3.863455727696418762e-02 3.056204319000244141e-02 4.355404153466224670e-02 -4.039627686142921448e-02 -7.939040660858154297e-03 -3.072550892829895020e-02 -5.427446216344833374e-02 -6.098362617194652557e-03 -6.139626353979110718e-02 -3.448307141661643982e-02 -4.744118824601173401e-02 -7.162849605083465576e-02 -1.509239803999662399e-02 -1.820104382932186127e-02 -2.132048010826110840e-01 -8.530335128307342529e-02 -2.679259888827800751e-02 -1.131895557045936584e-02 -4.047132283449172974e-02 -3.525248542428016663e-02 -1.241576857864856720e-02 -1.734469458460807800e-02 -2.976296469569206238e-02 -2.908008545637130737e-02 1.063268929719924927e-01 -1.113126240670681000e-02 -9.487234055995941162e-03 -2.122587710618972778e-02 -2.541363611817359924e-02 -6.713353563100099564e-03 -2.078209631145000458e-02 -1.229688432067632675e-02 -3.186167776584625244e-02 -2.330675534904003143e-02 -1.470286370022222400e-04 -3.887337818741798401e-02 -9.908745437860488892e-02 -1.071408987045288086e-01 -2.354975230991840363e-02 -4.950419068336486816e-02 -1.234877575188875198e-02 7.867772877216339111e-02 -3.322753310203552246e-02 -4.645168036222457886e-02 -2.427446991205215454e-01 2.242263173684477806e-03 -1.581602916121482849e-02 -1.529585942625999451e-02 -3.130508959293365479e-02 3.858899474143981934e-01 -2.056686952710151672e-02 -2.567181363701820374e-02 -1.566584967076778412e-02 -3.502536192536354065e-02 1.937739737331867218e-02 -2.197868935763835907e-02 1.732534021139144897e-01 -7.616644259542226791e-03 -3.035909496247768402e-02 -3.145134309306740761e-03 1.358438134193420410e-01 -2.646950259804725647e-02 -6.238091271370649338e-03 -1.133155170828104019e-02 -7.977288914844393730e-04 -2.801142260432243347e-02 -2.339307405054569244e-02 -5.715110898017883301e-02 7.628950476646423340e-02 -1.074604224413633347e-02 -1.228669472038745880e-02 -1.608484387397766113e-01 -1.004602015018463135e-01 -1.686876639723777771e-02 -1.547413319349288940e-02 -5.194750428199768066e-02 -3.122791647911071777e-02 -2.591248834505677223e-03 1.584731042385101318e-01 3.763148561120033264e-03 -2.691655047237873077e-02 -1.010803803801536560e-01 -5.325087904930114746e-02 -2.509078197181224823e-02 -1.257679704576730728e-02 -9.674371220171451569e-03 -1.852452941238880157e-02 -8.864578790962696075e-03 2.627599611878395081e-02 -1.628889329731464386e-02 -2.597439102828502655e-02 -3.422918915748596191e-02 -7.394388318061828613e-02 -7.205917686223983765e-02 -3.790457174181938171e-02 -3.807436302304267883e-02 1.119836117140948772e-03 -9.380331635475158691e-02 -2.979031531140208244e-03 -1.723967492580413818e-02 -9.282375127077102661e-02 -1.088977977633476257e-01 -1.561281736940145493e-02 -2.681023254990577698e-02 -2.714340575039386749e-02 -1.364878714084625244e-01 -4.627113416790962219e-02 -1.325019355863332748e-02 -3.477691207081079483e-03 1.118051037192344666e-01 -1.324745453894138336e-02 -2.857038192451000214e-02 -3.000719239935278893e-03 -8.122662454843521118e-02 7.993436604738235474e-02 -4.472751915454864502e-02 -7.290142122656106949e-03 -3.487703157588839531e-03 -2.000146731734275818e-02 1.516945511102676392e-01 -4.603185132145881653e-02 5.118399485945701599e-02 -8.106664568185806274e-02 -1.719900034368038177e-02 -7.382363080978393555e-02 1.347688771784305573e-02 -1.246125251054763794e-01 -1.250365097075700760e-02 1.775766015052795410e-01 -3.790955245494842529e-02 -5.135628208518028259e-02 -3.292515873908996582e-02 -1.725216507911682129e-01 -2.661268785595893860e-02 -3.759741038084030151e-02 -1.154903788119554520e-02 9.547043591737747192e-02 1.277757167816162109e+00 1.140943393111228943e-01 -3.224058449268341064e-02 -1.058913883753120899e-03 -2.893460914492607117e-02 -3.069882467389106750e-02 1.682826280593872070e-01 -4.571881145238876343e-02 -1.021494492888450623e-01 1.595502346754074097e-01 -1.103901397436857224e-02 -2.078105695545673370e-02 -9.117984771728515625e-02 -2.161349868401885033e-03 2.811811864376068115e-01 -5.208244919776916504e-02 -1.203364208340644836e-01 -2.505735307931900024e-02 -4.846929013729095459e-02 -2.663893857970833778e-03 2.097731083631515503e-01 -1.242984011769294739e-01 1.073677539825439453e-01 -5.261766165494918823e-02 -6.335377693176269531e-02 -5.067577213048934937e-02 -5.631054192781448364e-02 -8.660328574478626251e-03 -5.293906107544898987e-02 -3.713814308866858482e-03 -1.833194866776466370e-02 5.311118438839912415e-04 -1.467460300773382187e-02 3.711203858256340027e-02 -2.399973198771476746e-02 2.772691659629344940e-02 -4.451691731810569763e-02 -1.539914775639772415e-02 -3.429718688130378723e-02 -4.026522487401962280e-02 -1.439194008708000183e-02 -4.152535647153854370e-02 -1.197666898369789124e-01 -1.318605709820985794e-02 -3.181975707411766052e-02 -2.551998384296894073e-02 -4.990562796592712402e-02 -6.852302700281143188e-02 -2.552110888063907623e-02 -1.723873242735862732e-02 -2.106261998414993286e-02 -3.272606432437896729e-02 -2.051701769232749939e-02 -8.292381651699542999e-03 -2.934374287724494934e-02 -6.237776950001716614e-03 -1.152942851185798645e-01 -3.225457295775413513e-02 -1.826710626482963562e-02 -1.240691822022199631e-02 -5.026044696569442749e-02 -2.363625913858413696e-03 -5.185931175947189331e-02 -6.007926911115646362e-02 -1.333835767582058907e-03 -3.129012510180473328e-02 7.087155431509017944e-02 -4.088018834590911865e-02 -3.980687819421291351e-03 -2.412659302353858948e-02 -3.240675106644630432e-02 -1.446867920458316803e-02 -2.156722359359264374e-02 3.098820708692073822e-02 -2.286730334162712097e-02 -1.875982992351055145e-02 -1.564908921718597412e-01 -1.899320818483829498e-02 -1.940729282796382904e-02 -5.065402016043663025e-02 -7.166778296232223511e-02 -3.882195055484771729e-02 -7.223783433437347412e-02 -2.215372584760189056e-02 -4.088386520743370056e-02 -1.445362530648708344e-02 -1.606804877519607544e-02 -1.531781308585777879e-04 -6.741739064455032349e-02 -2.354880794882774353e-02 -9.271700680255889893e-02 -1.409420371055603027e-02 -1.083231065422296524e-02 -5.427727475762367249e-02 7.510539889335632324e-02 -2.107661776244640350e-02 -1.184124499559402466e-02 -7.245387881994247437e-02 -3.781159594655036926e-02 -1.388998422771692276e-02 -2.042926847934722900e-02 -4.366162419319152832e-02 1.141752675175666809e-02 -8.736768364906311035e-02 3.379879295825958252e-01 -3.357278555631637573e-02 6.592973321676254272e-02 -2.690025139600038528e-03 2.080216854810714722e-01 -6.713460385799407959e-02 -1.018803380429744720e-02 -2.103594504296779633e-02 -3.369140625000000000e-02 -2.857730723917484283e-02 -1.612446643412113190e-02 6.583972275257110596e-02 -9.778908453881740570e-03 -5.225742235779762268e-02 -8.771882951259613037e-02 -1.433713082224130630e-02 2.390406589256599545e-04 -3.957355767488479614e-02 -5.268017202615737915e-02 -3.184268996119499207e-02 -2.741405507549643517e-03 -3.254480287432670593e-02 -2.163384482264518738e-02 -2.741101011633872986e-02 5.073026986792683601e-04 6.399508565664291382e-02 -2.034338103840127587e-04 -2.662326768040657043e-02 1.456764638423919678e-01 -1.017496064305305481e-01 -1.641530543565750122e-02 -8.704817853868007660e-03 -6.295862048864364624e-02
-1.958202756941318512e-02 5.940085649490356445e-02 4.676795303821563721e-01 1.090165898203849792e-01 -1.802468299865722656e-02 4.650786146521568298e-02 -3.963322937488555908e-02 2.073756605386734009e-02 -8.617457002401351929e-03 3.525243699550628662e-02 -2.614231035113334656e-02 -5.232370458543300629e-04 -3.203354775905609131e-02 -3.005562815815210342e-03 -4.954329691827297211e-03 -5.439021810889244080e-02 -8.445069193840026855e-02 -2.018367685377597809e-02 -1.952630095183849335e-02 -1.057211961597204208e-02 -6.632570177316665649e-02 -4.482766985893249512e-02 -4.592720046639442444e-02 -1.603479124605655670e-02 -2.159308269619941711e-02 -3.003853559494018555e-02 -4.466156661510467529e-02 -2.283655107021331787e-02 -2.025677077472209930e-02 -1.645406894385814667e-02 -3.932539746165275574e-02 -4.019205272197723389e-02 -1.064944174140691757e-02 -8.210704475641250610e-02 -1.147517934441566467e-03 -2.137856930494308472e-02 1.182654668809846044e-04 -2.336226031184196472e-02 -3.341492265462875366e-03 2.366850972175598145e-01 -8.077993988990783691e-02 -8.085053414106369019e-04 -5.625836178660392761e-02 -3.278969228267669678e-02 2.983807325363159180e-01 -7.482675462961196899e-02 -1.834319904446601868e-03 -7.352884858846664429e-02 -2.391173876821994781e-02 -4.071520641446113586e-02 7.312861084938049316e-02 5.648507475852966309e-01 2.432670891284942627e-01 1.574248373508453369e-01 -2.180665172636508942e-02 2.679120004177093506e-01 -4.834017530083656311e-02 -1.245262939482927322e-02 -4.005601629614830017e-03 -2.529368922114372253e-02 -6.375636160373687744e-02 -2.487364783883094788e-02 1.769695244729518890e-02 2.067701965570449829e-01 2.202038466930389404e-01 -2.013294771313667297e-02 5.795669183135032654e-02 -3.407590091228485107e-02 -1.495526824146509171e-02 -1.072028372436761856e-02 -2.898395620286464691e-02 -5.535852629691362381e-03 -3.879518189933151007e-04 -3.954916074872016907e-02 -8.969542384147644043e-02 -5.085905641317367554e-02 -3.859923034906387329e-02 -1.483639888465404510e-02 -1.746187359094619751e-01 -1.209385097026824951e-01 -4.624601081013679504e-02 -4.444065503776073456e-03 -4.423076659440994263e-02 -1.260717120021581650e-02 -8.817519061267375946e-03 -8.865464478731155396e-03 -6.854208558797836304e-02 -5.180936306715011597e-03 -2.044213935732841492e-02 -2.247718162834644318e-02 -1.851950772106647491e-02 -4.116532206535339355e-02 -1.055682450532913208e-01 -5.860605742782354355e-04 -1.974178105592727661e-02 1.810058653354644775e-01 1.110224649310112000e-01 -4.553999006748199463e-02 -3.332484140992164612e-02 -2.696033380925655365e-02 -4.297520034015178680e-03 -3.983027860522270203e-02 -2.129406295716762543e-02 1.301556527614593506e-01 -4.776693414896726608e-03 -9.019283577799797058e-03 -8.314819075167179108e-03 -1.685383915901184082e-02 -1.152659393846988678e-02 -1.772202923893928528e-02 -3.863455727696418762e-02 3.056204319000244141e-02 4.355404153466224670e-02 -4.039627686142921448e-02 -7.939040660858154297e-03 -3.072550892829895020e-02 -5.427446216344833374e-02 -6.098362617194652557e-03 -6.128518655896186829e-02 -3.444631770253181458e-02 -4.744118824601173401e-02 -7.167949527502059937e-02 -1.507092174142599106e-02 -1.820104382932186127e-02 -2.128476351499557495e-01 -8.530335128307342529e-02 -2.677540294826030731e-02 -1.131895557045936584e-02 -4.046172648668289185e-02 -3.525248542428016663e-02 -1.247911620885133743e-02 -1.734469458460807800e-02 -2.976296469569206238e-02 -2.908008545637130737e-02 1.063268929719924927e-01 -1.113126240670681000e-02 -9.570822119712829590e-03 -2.117629908025264740e-02 -2.541363611817359924e-02 -6.713353563100099564e-03 -2.078209631145000458e-02 -1.226089149713516235e-02 -3.167245909571647644e-02 -2.330675534904003143e-02 -1.470286370022222400e-04 -3.887337818741798401e-02 -9.908745437860488892e-02 -1.071408987045288086e-01 -2.355126664042472839e-02 -4.937240853905677795e-02 -1.234877575188875198e-02 7.867772877216339111e-02 -3.321986645460128784e-02 -4.645168036222457886e-02 -2.429912686347961426e-01 2.253077924251556396e-03 -1.582406833767890930e-02 -1.529585942625999451e-02 -3.130508959293365479e-02 3.858899474143981934e-01 -2.056686952710151672e-02 -2.567181363701820374e-02 -1.566584967076778412e-02 -3.487753123044967651e-02 1.937739737331867218e-02 -2.201530896127223969e-02 1.732534021139144897e-01 -7.616644259542226791e-03 -3.035909496247768402e-02 -3.145134309306740761e-03 1.358714252710342407e-01 -2.646950259804725647e-02 -6.238091271370649338e-03 -1.249154191464185715e-02 -7.977288914844393730e-04 -2.801142260432243347e-02 -2.375457808375358582e-02 -5.715110898017883301e-02 7.628950476646423340e-02 -1.083658263087272644e-02 -1.228669472038745880e-02 -1.608484387397766113e-01 -1.004602015018463135e-01 -1.679386943578720093e-02 -1.547413319349288940e-02 -5.194750428199768066e-02 -3.122791647911071777e-02 -2.658457728102803230e-03 1.584731042385101318e-01 3.763148561120033264e-03 -2.691655047237873077e-02 -1.010803803801536560e-01 -5.325087904930114746e-02 -2.509078197181224823e-02 -1.257679704576730728e-02 -9.674371220171451569e-03 -1.852452941238880157e-02 -8.864578790962696075e-03 2.627599611878395081e-02 -1.628889329731464386e-02 -2.597439102828502655e-02 -3.422918915748596191e-02 -7.419593632221221924e-02 -7.203906029462814331e-02 -3.790457174181938171e-02 -3.800967335700988770e-02 1.119836117140948772e-03 -9.380331635475158691e-02 -2.936490811407566071e-03 -1.723967492580413818e-02 -9.282375127077102661e-02 -1.088510975241661072e-01 -1.561281736940145493e-02 -2.681023254990577698e-02 -2.714340575039386749e-02 -1.364711374044418335e-01 -4.627113416790962219e-02 -1.325019355863332748e-02 -3.572009038180112839e-03 1.118346229195594788e-01 -1.324745453894138336e-02 -2.847935073077678680e-02 -3.000719239935278893e-03 -8.122662454843521118e-02 7.993436604738235474e-02 -4.455404356122016907e-02 -7.290142122656106949e-03 -3.487703157588839531e-03 -1.990436576306819916e-02 1.516945511102676392e-01 -4.603185132145881653e-02 5.118399485945701599e-02 -8.106664568185806274e-02 -1.719900034368038177e-02 -7.382363080978393555e-02 1.351637393236160278e-02 -1.246125251054763794e-01 -1.210694201290607452e-02 1.776627749204635620e-01 -3.790955245494842529e-02 -5.135628208518028259e-02 -3.292515873908996582e-02 -1.724944263696670532e-01 -2.661268785595893860e-02 -3.743372112512588501e-02 -1.162770204246044159e-02 9.547043591737747192e-02 1.277757167816162109e+00 1.140943393111228943e-01 -3.224058449268341064e-02 -1.058913883753120899e-03 -2.893460914492607117e-02 -3.069882467389106750e-02 1.682826280593872070e-01 -4.418843984603881836e-02 -1.021494492888450623e-01 1.595502346754074097e-01 -1.103901397436857224e-02 -2.097135782241821289e-02 -9.119936078786849976e-02 -5.479552200995385647e-04 2.811811864376068115e-01 -5.208244919776916504e-02 -1.203364208340644836e-01 -2.505735307931900024e-02 -4.846929013729095459e-02 -2.663893857970833778e-03 2.097731083631515503e-01 -1.242984011769294739e-01 1.073677539825439453e-01 -5.261766165494918823e-02 -6.335377693176269531e-02 -5.067577213048934937e-02 -5.631054192781448364e-02 -8.660328574478626251e-03 -5.293906107544898987e-02 -6.779122166335582733e-03 -1.825749874114990234e-02 4.538378852885216475e-04 -1.468193531036376953e-02 3.711203858256340027e-02 -2.399973198771476746e-02 2.772691659629344940e-02 -4.451691731810569763e-02 -1.539914775639772415e-02 -3.429718688130378723e-02 -4.026522487401962280e-02 -1.445430424064397812e-02 -4.152535647153854370e-02 -1.197666898369789124e-01 -1.318605709820985794e-02 -3.181975707411766052e-02 -2.551998384296894073e-02 -4.990562796592712402e-02 -6.854808330535888672e-02 -2.552110888063907623e-02 -1.723873242735862732e-02 -2.107109315693378448e-02 -3.265053033828735352e-02 -2.051701769232749939e-02 -8.292381651699542999e-03 -2.931172214448451996e-02 -6.351856980472803116e-03 -1.154493987560272217e-01 -3.225457295775413513e-02 -1.826710626482963562e-02 -1.240691822022199631e-02 -5.026044696569442749e-02 -2.239803783595561981e-03 -5.185931175947189331e-02 -6.058777123689651489e-02 -1.333835767582058907e-03 -3.129012510180473328e-02 7.087155431509017944e-02 -4.088018834590911865e-02 -3.980687819421291351e-03 -2.412659302353858948e-02 -3.240675106644630432e-02 -1.446867920458316803e-02 -2.151185274124145508e-02 3.098820708692073822e-02 -2.286730334162712097e-02 -1.860387064516544342e-02 -1.565404981374740601e-01 -1.899320818483829498e-02 -1.929505169391632080e-02 -5.062003806233406067e-02 -7.166778296232223511e-02 -3.882195055484771729e-02 -7.223783433437347412e-02 -2.215372584760189056e-02 -4.088386520743370056e-02 -1.445362530648708344e-02 -1.595329679548740387e-02 -1.531781308585777879e-04 -6.741739064455032349e-02 -2.354880794882774353e-02 -9.277149289846420288e-02 -1.409420371055603027e-02 -1.083231065422296524e-02 -5.427727475762367249e-02 7.510539889335632324e-02 -2.107661776244640350e-02 -1.184124499559402466e-02 -7.245387881994247437e-02 -3.781159594655036926e-02 -1.401717681437730789e-02 -2.042926847934722900e-02 -4.366162419319152832e-02 1.141752675175666809e-02 -8.743026107549667358e-02 3.379233777523040771e-01 -3.357278555631637573e-02 6.592973321676254272e-02 -2.690025139600038528e-03 2.081595361232757568e-01 -6.713460385799407959e-02 -1.018803380429744720e-02 -2.108947746455669403e-02 -3.362073004245758057e-02 -2.866693586111068726e-02 -1.612446643412113190e-02 6.583972275257110596e-02 -9.778908453881740570e-03 -5.218781903386116028e-02 -8.771882951259613037e-02 -1.433713082224130630e-02 2.390406589256599545e-04 -3.950166329741477966e-02 -5.268805101513862610e-02 -3.182416036725044250e-02 -2.741405507549643517e-03 -3.277998417615890503e-02 -2.163384482264518738e-02 -2.655318938195705414e-02 6.183533696457743645e-04 6.399508565664291382e-02 -2.034338103840127587e-04 -2.662326768040657043e-02 1.456764638423919678e-01 -1.017862334847450256e-01 -1.641530543565750122e-02 -8.704817853868007660e-03 -6.295862048864364624e-02
-1.980720274150371552e-02 5.940085649490356445e-02 4.676795303821563721e-01 1.090165898203849792e-01 -1.802468299865722656e-02 4.650786146521568298e-02 -3.944235667586326599e-02 2.073756605386734009e-02 -8.617457002401351929e-03 3.525243699550628662e-02 -2.614231035113334656e-02 -5.232370458543300629e-04 -3.203354775905609131e-02 -3.005562815815210342e-03 -4.954329691827297211e-03 -5.439021810889244080e-02 -8.445069193840026855e-02 -2.018367685377597809e-02 -1.952630095183849335e-02 -1.057211961597204208e-02 -6.632570177316665649e-02 -4.482766985893249512e-02 -4.592720046639442444e-02 -1.603479124605655670e-02 -2.159308269619941711e-02 -3.003853559494018555e-02 -4.466156661510467529e-02 -2.281112968921661377e-02 -2.025677077472209930e-02 -1.645406894385814667e-02 -3.932539746165275574e-02 -4.019205272197723389e-02 -1.064944174140691757e-02 -8.210704475641250610e-02 -1.147517934441566467e-03 -2.137856930494308472e-02 1.182654668809846044e-04 -2.336226031184196472e-02 -3.341492265462875366e-03 2.366850972175598145e-01 -8.077993988990783691e-02 -8.367172558791935444e-04 -5.663070455193519592e-02 -3.278969228267669678e-02 2.983807325363159180e-01 -7.482675462961196899e-02 -1.834319904446601868e-03 -7.352884858846664429e-02 -2.391173876821994781e-02 -4.071520641446113586e-02 7.312861084938049316e-02 5.648337602615356445e-01 2.432670891284942627e-01 1.574248373508453369e-01 -2.180665172636508942e-02 2.679120004177093506e-01 -4.834017530083656311e-02 -1.245262939482927322e-02 -4.005601629614830017e-03 -2.529368922114372253e-02 -6.375636160373687744e-02 -2.497301250696182251e-02 1.770338416099548340e-02 2.067701965570449829e-01 2.202038466930389404e-01 -2.013294771313667297e-02 5.795669183135032654e-02 -3.407590091228485107e-02 -1.495526824146509171e-02 -1.072028372436761856e-02 -2.898395620286464691e-02 -5.544498097151517868e-03 -3.879518189933151007e-04 -3.952357545495033264e-02 -8.969542384147644043e-02 -5.085905641317367554e-02 -3.859923034906387329e-02 -1.483639888465404510e-02 -1.754709184169769287e-01 -1.209385097026824951e-01 -4.624601081013679504e-02 -4.444065503776073456e-03 -4.423076659440994263e-02 -1.260717120021581650e-02 -8.817519061267375946e-03 -8.865464478731155396e-03 -6.854208558797836304e-02 -5.180936306715011597e-03 -2.034152299165725708e-02 -2.247718162834644318e-02 -1.851950772106647491e-02 -4.116532206535339355e-02 -1.056395098567008972e-01 -6.595729500986635685e-04 -1.974178105592727661e-02 1.810058653354644775e-01 1.110224649310112000e-01 -4.553999006748199463e-02 -3.332484140992164612e-02 -2.696033380925655365e-02 -4.327180329710245132e-03 -3.983027860522270203e-02 -2.129406295716762543e-02 1.301556527614593506e-01 -4.776693414896726608e-03 -9.019283577799797058e-03 -8.748501539230346680e-03 -1.685383915901184082e-02 -1.152659393846988678e-02 -1.778783090412616730e-02 -3.863455727696418762e-02 3.056204319000244141e-02 4.355404153466224670e-02 -4.039627686142921448e-02 -7.939040660858154297e-03 -3.072550892829895020e-02 -5.427446216344833374e-02 -6.098362617194652557e-03 -6.128518655896186829e-02 -3.444631770253181458e-02 -4.744118824601173401e-02 -7.167949527502059937e-02 -1.510183978825807571e-02 -1.820104382932186127e-02 -2.128476351499557495e-01 -8.530335128307342529e-02 -2.677540294826030731e-02 -1.131895557045936584e-02 -4.046172648668289185e-02 -3.525248542428016663e-02 -1.255158707499504089e-02 -1.734469458460807800e-02 -2.976296469569206238e-02 -2.908008545637130737e-02 1.063268929719924927e-01 -1.113126240670681000e-02 -9.623703546822071075e-03 -2.114384062588214874e-02 -2.541363611817359924e-02 -6.713353563100099564e-03 -2.078209631145000458e-02 -1.226089149713516235e-02 -3.167245909571647644e-02 -2.330675534904003143e-02 -1.470286370022222400e-04 -3.887337818741798401e-02 -9.908745437860488892e-02 -1.072669103741645813e-01 -2.355126664042472839e-02 -4.937240853905677795e-02 -1.234877575188875198e-02 7.867772877216339111e-02 -3.321986645460128784e-02 -4.645168036222457886e-02 -2.432639300823211670e-01 2.253077924251556396e-03 -1.581214554607868195e-02 -1.529585942625999451e-02 -3.130508959293365479e-02 3.858899474143981934e-01 -2.056686952710151672e-02 -2.567181363701820374e-02 -1.566584967076778412e-02 -3.487753123044967651e-02 1.937739737331867218e-02 -2.201559208333492279e-02 1.732534021139144897e-01 -7.616644259542226791e-03 -3.035909496247768402e-02 -3.145134309306740761e-03 1.358714252710342407e-01 -2.646950259804725647e-02 -6.238091271370649338e-03 -1.310648303478956223e-02 -7.977288914844393730e-04 -2.801142260432243347e-02 -2.375457808375358582e-02 -5.715110898017883301e-02 7.628950476646423340e-02 -1.083658263087272644e-02 -1.228669472038745880e-02 -1.608484387397766113e-01 -1.004602015018463135e-01 -1.679386943578720093e-02 -1.547413319349288940e-02 -5.194750428199768066e-02 -3.122791647911071777e-02 -2.700609853491187096e-03 1.584731042385101318e-01 3.763148561120033264e-03 -2.691655047237873077e-02 -1.010803803801536560e-01 -5.325087904930114746e-02 -2.509078197181224823e-02 -1.257679704576730728e-02 -9.674371220171451569e-03 -1.852452941238880157e-02 -8.864578790962696075e-03 2.627599611878395081e-02 -1.628889329731464386e-02 -2.597439102828502655e-02 -3.422918915748596191e-02 -7.459793984889984131e-02 -7.203906029462814331e-02 -3.790457174181938171e-02 -3.815115615725517273e-02 1.119836117140948772e-03 -9.380331635475158691e-02 -2.936490811407566071e-03 -1.723967492580413818e-02 -9.282375127077102661e-02 -1.087203845381736755e-01 -1.561281736940145493e-02 -2.681023254990577698e-02 -2.714340575039386749e-02 -1.364711374044418335e-01 -4.627113416790962219e-02 -1.325019355863332748e-02 -3.605649340897798538e-03 1.118346229195594788e-01 -1.324745453894138336e-02 -2.847935073077678680e-02 -3.000719239935278893e-03 -8.122662454843521118e-02 7.993436604738235474e-02 -4.456753656268119812e-02 -7.290142122656106949e-03 -3.487703157588839531e-03 -1.990436576306819916e-02 1.516945511102676392e-01 -4.603185132145881653e-02 5.114091560244560242e-02 -8.101303130388259888e-02 -1.719900034368038177e-02 -7.382363080978393555e-02 1.351637393236160278e-02 -1.246125251054763794e-01 -1.210694201290607452e-02 1.776698678731918335e-01 -3.790955245494842529e-02 -5.135628208518028259e-02 -3.292515873908996582e-02 -1.724944263696670532e-01 -2.661268785595893860e-02 -3.743372112512588501e-02 -1.162770204246044159e-02 9.547043591737747192e-02 1.277757167816162109e+00 1.140943393111228943e-01 -3.224058449268341064e-02 -1.058913883753120899e-03 -2.893460914492607117e-02 -3.069882467389106750e-02 1.682826280593872070e-01 -4.436498135328292847e-02 -1.021494492888450623e-01 1.595502346754074097e-01 -1.103901397436857224e-02 -2.115217968821525574e-02 -9.120664000511169434e-02 2.016008511418476701e-04 2.811811864376068115e-01 -5.208244919776916504e-02 -1.206317692995071411e-01 -2.505735307931900024e-02 -4.846929013729095459e-02 -2.663893857970833778e-03 2.097731083631515503e-01 -1.242984011769294739e-01 1.073677539825439453e-01 -5.261766165494918823e-02 -6.335377693176269531e-02 -5.067577213048934937e-02 -5.631054192781448364e-02 -8.660328574478626251e-03 -5.293906107544898987e-02 -6.782095879316329956e-03 -1.825749874114990234e-02 4.538378852885216475e-04 -1.468193531036376953e-02 3.711203858256340027e-02 -2.399973198771476746e-02 2.772691659629344940e-02 -4.451691731810569763e-02 -1.539914775639772415e-02 -3.429718688130378723e-02 -4.026522487401962280e-02 -1.445430424064397812e-02 -4.152535647153854370e-02 -1.197666898369789124e-01 -1.318605709820985794e-02 -3.181975707411766052e-02 -2.551998384296894073e-02 -4.990562796592712402e-02 -6.858970224857330322e-02 -2.552110888063907623e-02 -1.723873242735862732e-02 -2.107109315693378448e-02 -3.265053033828735352e-02 -2.051701769232749939e-02 -8.292381651699542999e-03 -2.928972616791725159e-02 -6.420732475817203522e-03 -1.154493987560272217e-01 -3.225457295775413513e-02 -1.826710626482963562e-02 -1.240691822022199631e-02 -5.026044696569442749e-02 -2.160602249205112457e-03 -5.185931175947189331e-02 -6.058777123689651489e-02 -1.333835767582058907e-03 -3.129012510180473328e-02 7.087155431509017944e-02 -4.088018834590911865e-02 -3.980687819421291351e-03 -2.412659302353858948e-02 -3.240675106644630432e-02 -1.446867920458316803e-02 -2.147598192095756531e-02 3.098820708692073822e-02 -2.286730334162712097e-02 -1.860387064516544342e-02 -1.565707921981811523e-01 -1.899320818483829498e-02 -1.929505169391632080e-02 -5.062003806233406067e-02 -7.166778296232223511e-02 -3.882195055484771729e-02 -7.223783433437347412e-02 -2.215372584760189056e-02 -4.088386520743370056e-02 -1.445362530648708344e-02 -1.590926572680473328e-02 -1.531781308585777879e-04 -6.741739064455032349e-02 -2.354880794882774353e-02 -9.275020658969879150e-02 -1.409420371055603027e-02 -1.083231065422296524e-02 -5.427727475762367249e-02 7.510539889335632324e-02 -2.107661776244640350e-02 -1.184124499559402466e-02 -7.245387881994247437e-02 -3.781159594655036926e-02 -1.389799918979406357e-02 -2.042926847934722900e-02 -4.366162419319152832e-02 1.141752675175666809e-02 -8.743026107549667358e-02 3.379233777523040771e-01 -3.357278555631637573e-02 6.592973321676254272e-02 -2.690025139600038528e-03 2.081595361232757568e-01 -6.713460385799407959e-02 -1.018803380429744720e-02 -2.108947746455669403e-02 -3.362073004245758057e-02 -2.866693586111068726e-02 -1.612446643412113190e-02 6.583972275257110596e-02 -9.778908453881740570e-03 -5.218781903386116028e-02 -8.771882951259613037e-02 -1.433713082224130630e-02 2.390406589256599545e-04 -3.950166329741477966e-02 -5.274035781621932983e-02 -3.180872276425361633e-02 -2.741405507549643517e-03 -3.292470052838325500e-02 -2.163384482264518738e-02 -2.600055932998657227e-02 6.183533696457743645e-04 6.399508565664291382e-02 -2.034338103840127587e-04 -2.662326768040657043e-02 1.456764638423919678e-01 -1.017862334847450256e-01 -1.641530543565750122e-02 -8.704817853868007660e-03 -6.295862048864364624e-02
-1.792989112436771393e-02 5.940085649490356445e-02 4.676795303821563721e-01 1.090165898203849792e-01 -1.802468299865722656e-02 4.624296724796295166e-02 -3.595175221562385559e-02 2.073756605386734009e-02 -8.617457002401351929e-03 3.525243699550628662e-02 -2.614426240324974060e-02 -9.886712068691849709e-04 -3.203354775905609131e-02 -3.005562815815210342e-03 -4.954329691827297211e-03 -5.449081957340240479e-02 -8.445069193840026855e-02 -2.018367685377597809e-02 -1.948415301740169525e-02 -1.057211961597204208e-02 -6.632315367460250854e-02 -4.482766985893249512e-02 -4.592720046639442444e-02 -1.603479124605655670e-02 -2.147202752530574799e-02 -2.960469946265220642e-02 -4.481306672096252441e-02 -2.277369983494281769e-02 -2.015933953225612640e-02 -1.645406894385814667e-02 -3.932539746165275574e-02 -4.019205272197723389e-02 -1.063462719321250916e-02 -8.210704475641250610e-02 -1.224916893988847733e-03 -2.137856930494308472e-02 1.451875723432749510e-04 -2.336226031184196472e-02 -3.341492265462875366e-03 2.367953509092330933e-01 -8.077993988990783691e-02 -9.561657207086682320e-04 -5.668305233120918274e-02 -3.278969228267669678e-02 2.983807325363159180e-01 -7.482675462961196899e-02 -2.090610796585679054e-03 -7.342544198036193848e-02 -2.391173876821994781e-02 -4.071520641446113586e-02 7.312861084938049316e-02 5.647044181823730469e-01 2.433171123266220093e-01 1.574248373508453369e-01 -2.180665172636508942e-02 2.679120004177093506e-01 -4.834017530083656311e-02 -1.245262939482927322e-02 -4.051034804433584213e-03 -2.529368922114372253e-02 -6.342134624719619751e-02 -2.502585574984550476e-02 1.770474202930927277e-02 2.084282934665679932e-01 2.204769402742385864e-01 -2.013294771313667297e-02 5.795669183135032654e-02 -3.407590091228485107e-02 -1.495526824146509171e-02 -1.072028372436761856e-02 -2.898395620286464691e-02 -5.563631653785705566e-03 -4.344168992247432470e-04 -3.975753486156463623e-02 -8.969542384147644043e-02 -5.089053511619567871e-02 -3.859923034906387329e-02 -1.484079752117395401e-02 -1.766366809606552124e-01 -1.209385097026824951e-01 -4.624601081013679504e-02 -4.444065503776073456e-03 -4.420773312449455261e-02 -1.260717120021581650e-02 -8.650166913866996765e-03 -8.865464478731155396e-03 -6.854208558797836304e-02 -5.180936306715011597e-03 -1.698332466185092926e-02 -2.247718162834644318e-02 -1.851950772106647491e-02 -4.116532206535339355e-02 -1.061205640435218811e-01 -4.385088977869600058e-04 -1.974068209528923035e-02 1.810058653354644775e-01 1.110224649310112000e-01 -4.553999006748199463e-02 -3.332484140992164612e-02 -2.696033380925655365e-02 -4.375566728413105011e-03 -3.983027860522270203e-02 -2.128202654421329498e-02 1.301556527614593506e-01 -4.776693414896726608e-03 -9.019283577799797058e-03 -7.782631553709506989e-03 -1.685383915901184082e-02 -1.161867473274469376e-02 -1.814978942275047302e-02 -3.863455727696418762e-02 3.056204319000244141e-02 4.355404153466224670e-02 -4.039627686142921448e-02 -7.939040660858154297e-03 -3.072550892829895020e-02 -5.427446216344833374e-02 -6.098362617194652557e-03 -6.126133352518081665e-02 -3.443397209048271179e-02 -4.767954349517822266e-02 -7.167100906372070312e-02 -1.523109432309865952e-02 -1.820104382932186127e-02 -2.129513025283813477e-01 -8.530335128307342529e-02 -2.686567977070808411e-02 -1.131895557045936584e-02 -4.050611704587936401e-02 -3.531045466661453247e-02 -1.241436228156089783e-02 -1.734469458460807800e-02 -2.976296469569206238e-02 -2.906299754977226257e-02 1.063268929719924927e-01 -1.113126240670681000e-02 -9.711921215057373047e-03 -2.108801528811454773e-02 -2.541363611817359924e-02 -6.713353563100099564e-03 -2.078209631145000458e-02 -1.240321528166532516e-02 -3.162006288766860962e-02 -2.330675534904003143e-02 -1.470286370022222400e-04 -3.887337818741798401e-02 -9.908745437860488892e-02 -1.073991209268569946e-01 -2.355126664042472839e-02 -4.979289323091506958e-02 -1.234877575188875198e-02 7.867772877216339111e-02 -3.322006389498710632e-02 -4.645168036222457886e-02 -2.431169152259826660e-01 2.317073754966259003e-03 -1.626533269882202148e-02 -1.529585942625999451e-02 -3.130508959293365479e-02 3.858899474143981934e-01 -2.056686952710151672e-02 -2.567181363701820374e-02 -1.566584967076778412e-02 -3.515321016311645508e-02 1.937739737331867218e-02 -2.195635996758937836e-02 1.732534021139144897e-01 -7.616644259542226791e-03 -3.035909496247768402e-02 -3.145134309306740761e-03 1.361357569694519043e-01 -2.646950259804725647e-02 -6.238091271370649338e-03 -2.216274105012416840e-02 -7.977288914844393730e-04 -2.801142260432243347e-02 -2.323707565665245056e-02 -5.715110898017883301e-02 7.628950476646423340e-02 -1.083658263087272644e-02 -1.228669472038745880e-02 -1.608484387397766113e-01 -1.004602015018463135e-01 -1.667461916804313660e-02 -1.547413319349288940e-02 -5.194750428199768066e-02 -3.122791647911071777e-02 -2.770604100078344345e-03 1.584731042385101318e-01 3.763148561120033264e-03 -2.691655047237873077e-02 -1.010803803801536560e-01 -5.325087904930114746e-02 -2.508953027427196503e-02 -1.257679704576730728e-02 -9.760074317455291748e-03 -1.852452941238880157e-02 -8.864578790962696075e-03 2.627599611878395081e-02 -1.628889329731464386e-02 -2.597439102828502655e-02 -3.422918915748596191e-02 -7.367592304944992065e-02 -7.216446846723556519e-02 -3.790457174181938171e-02 -3.803339228034019470e-02 1.119836117140948772e-03 -9.367156028747558594e-02 -2.922932151705026627e-03 -1.723967492580413818e-02 -9.282375127077102661e-02 -1.080562248826026917e-01 -1.561281736940145493e-02 -2.681023254990577698e-02 -2.714340575039386749e-02 -1.365219801664352417e-01 -4.627113416790962219e-02 -1.325019355863332748e-02 -3.818781813606619835e-03 1.110823452472686768e-01 -1.324745453894138336e-02 -2.863150089979171753e-02 -3.000719239935278893e-03 -8.122662454843521118e-02 7.993436604738235474e-02 -4.466042667627334595e-02 -7.290142122656106949e-03 -3.493886208161711693e-03 -2.027592994272708893e-02 1.518131196498870850e-01 -4.603185132145881653e-02 5.105182901024818420e-02 -8.106658607721328735e-02 -1.719900034368038177e-02 -7.382363080978393555e-02 1.353066228330135345e-02 -1.246125251054763794e-01 -1.257839798927307129e-02 1.772447526454925537e-01 -3.785962983965873718e-02 -5.135628208518028259e-02 -3.292515873908996582e-02 -1.713092625141143799e-01 -2.623794600367546082e-02 -3.820564597845077515e-02 -1.171093992888927460e-02 9.547043591737747192e-02 1.277757167816162109e+00 1.140943393111228943e-01 -3.224058449268341064e-02 -1.058913883753120899e-03 -2.893460914492607117e-02 -3.069882467389106750e-02 1.691769957542419434e-01 -4.186375811696052551e-02 -1.021494492888450623e-01 1.595502346754074097e-01 -1.103901397436857224e-02 -2.127801999449729919e-02 -9.164769202470779419e-02 2.567332936450839043e-03 2.811811864376068115e-01 -5.208244919776916504e-02 -1.195711269974708557e-01 -2.509190514683723450e-02 -4.846929013729095459e-02 -2.663893857970833778e-03 2.097731083631515503e-01 -1.242984011769294739e-01 1.073677539825439453e-01 -5.261766165494918823e-02 -6.335377693176269531e-02 -5.067577213048934937e-02 -5.631054192781448364e-02 -8.660328574478626251e-03 -5.293906107544898987e-02 -8.733840659260749817e-03 -1.801600307226181030e-02 2.971338981296867132e-04 -1.473257970064878464e-02 3.711203858256340027e-02 -2.396820299327373505e-02 2.768055722117424011e-02 -4.451691731810569763e-02 -1.532067544758319855e-02 -3.429718688130378723e-02 -4.026522487401962280e-02 -1.526075042784214020e-02 -4.152535647153854370e-02 -1.197666898369789124e-01 -1.318605709820985794e-02 -3.195437788963317871e-02 -2.549085766077041626e-02 -4.990562796592712402e-02 -6.863860785961151123e-02 -2.552110888063907623e-02 -1.723873242735862732e-02 -2.132463827729225159e-02 -3.169438987970352173e-02 -2.051701769232749939e-02 -8.312928490340709686e-03 -2.935889177024364471e-02 -5.898731295019388199e-03 -1.149780005216598511e-01 -3.225457295775413513e-02 -1.826710626482963562e-02 -1.240691822022199631e-02 -5.026044696569442749e-02 -2.027478767558932304e-03 -5.185931175947189331e-02 -5.807719007134437561e-02 -1.333835767582058907e-03 -3.129012510180473328e-02 7.087155431509017944e-02 -4.088018834590911865e-02 -3.980687819421291351e-03 -2.412659302353858948e-02 -3.240675106644630432e-02 -1.446867920458316803e-02 -2.141531743109226227e-02 3.098820708692073822e-02 -2.284695208072662354e-02 -1.863723993301391602e-02 -1.565655469894409180e-01 -1.899320818483829498e-02 -1.982719264924526215e-02 -5.065619572997093201e-02 -7.166778296232223511e-02 -3.882195055484771729e-02 -7.223783433437347412e-02 -2.215372584760189056e-02 -4.088386520743370056e-02 -1.445362530648708344e-02 -1.584370434284210205e-02 -1.531781308585777879e-04 -6.741453707218170166e-02 -2.354880794882774353e-02 -9.407635033130645752e-02 -1.409420371055603027e-02 -1.087702438235282898e-02 -5.427727475762367249e-02 7.510539889335632324e-02 -2.107661776244640350e-02 -1.184124499559402466e-02 -7.245387881994247437e-02 -3.780546784400939941e-02 -1.551514398306608200e-02 -2.042926847934722900e-02 -4.366162419319152832e-02 1.141752675175666809e-02 -8.757007867097854614e-02 3.373785316944122314e-01 -3.357278555631637573e-02 6.584151089191436768e-02 -2.690025139600038528e-03 2.079560905694961548e-01 -6.713460385799407959e-02 -1.018803380429744720e-02 -2.104189991950988770e-02 -3.373907133936882019e-02 -2.874868363142013550e-02 -1.612446643412113190e-02 6.583972275257110596e-02 -9.778908453881740570e-03 -5.217188224196434021e-02 -8.771882951259613037e-02 -1.433713082224130630e-02 2.390406589256599545e-04 -3.949718177318572998e-02 -5.398365482687950134e-02 -3.184258192777633667e-02 -2.741405507549643517e-03 -3.316528722643852234e-02 -2.163384482264518738e-02 -2.532905340194702148e-02 8.877404034137725830e-04 6.408559530973434448e-02 -2.034338103840127587e-04 -2.662326768040657043e-02 1.456764638423919678e-01 -1.017818376421928406e-01 -1.641530543565750122e-02 -8.285701274871826172e-03 -6.295862048864364624e-02
-1.757514476776123047e-02 5.906358733773231506e-02 4.675593078136444092e-01 1.072726920247077942e-01 -1.914914324879646301e-02 4.593939706683158875e-02 -3.687146678566932678e-02 2.227997966110706329e-02 -8.617457002401351929e-03 3.415150195360183716e-02 -2.616237476468086243e-02 4.427075851708650589e-03 -3.203354775905609131e-02 -4.018805455416440964e-03 -4.954329691827297211e-03 -5.449081957340240479e-02 -8.445069193840026855e-02 -2.046795561909675598e-02 -1.942782290279865265e-02 -1.052183285355567932e-02 -6.638519465923309326e-02 -4.482766985893249512e-02 -4.700380936264991760e-02 -1.603479124605655670e-02 -2.140715345740318298e-02 -2.857914566993713379e-02 -4.378031566739082336e-02 -2.277369983494281769e-02 -2.027205564081668854e-02 -1.645406894385814667e-02 -3.932539746165275574e-02 -4.019205272197723389e-02 -1.063462719321250916e-02 -8.210704475641250610e-02 1.343525014817714691e-03 -2.137856930494308472e-02 2.291865646839141846e-03 -2.336226031184196472e-02 -3.341492265462875366e-03 2.340630590915679932e-01 -8.086663484573364258e-02 -9.561657207086682320e-04 -5.688687041401863098e-02 -3.127902001142501831e-02 2.925894856452941895e-01 -7.482675462961196899e-02 -2.268997486680746078e-03 -7.390028983354568481e-02 -2.391173876821994781e-02 -4.071520641446113586e-02 7.157514244318008423e-02 5.577675104141235352e-01 2.532012462615966797e-01 1.539054065942764282e-01 -2.180665172636508942e-02 2.651657462120056152e-01 -4.834017530083656311e-02 -1.245262939482927322e-02 -4.051034804433584213e-03 -2.529368922114372253e-02 -6.342134624719619751e-02 -2.508019469678401947e-02 1.983190886676311493e-02 2.061434835195541382e-01 2.172689884901046753e-01 -2.013294771313667297e-02 5.629129335284233093e-02 -3.407590091228485107e-02 -1.495526824146509171e-02 -1.072028372436761856e-02 -2.898395620286464691e-02 -5.621611140668392181e-03 -4.502787778619676828e-04 -3.875059634447097778e-02 -8.935882896184921265e-02 -4.799997434020042419e-02 -3.859923034906387329e-02 -1.450836099684238434e-02 -1.774132996797561646e-01 -1.209385097026824951e-01 -4.624601081013679504e-02 -4.444065503776073456e-03 -4.420773312449455261e-02 -1.260717120021581650e-02 -8.650166913866996765e-03 -8.865464478731155396e-03 -6.854208558797836304e-02 -5.724624264985322952e-03 -1.698018424212932587e-02 -2.247718162834644318e-02 -1.851950772106647491e-02 -4.101483896374702454e-02 -1.024497449398040771e-01 5.340065807104110718e-03 -1.974068209528923035e-02 1.794500797986984253e-01 1.094932407140731812e-01 -4.549575597047805786e-02 -3.332484140992164612e-02 -2.696033380925655365e-02 -4.375566728413105011e-03 -3.539187833666801453e-02 -2.109740674495697021e-02 1.277609318494796753e-01 -4.776693414896726608e-03 -9.019283577799797058e-03 -6.313437130302190781e-03 -1.688238605856895447e-02 -1.161867473274469376e-02 -1.814978942275047302e-02 -3.863455727696418762e-02 3.008644096553325653e-02 4.263401776552200317e-02 -4.039627686142921448e-02 -7.112126797437667847e-03 -3.072550892829895020e-02 -5.427446216344833374e-02 -6.098362617194652557e-03 -6.120769679546356201e-02 -3.351036459207534790e-02 -4.767954349517822266e-02 -7.123850286006927490e-02 -1.523109432309865952e-02 -1.820104382932186127e-02 -2.118407338857650757e-01 -8.612436801195144653e-02 -2.559072524309158325e-02 -1.131895557045936584e-02 -3.981984034180641174e-02 -3.531045466661453247e-02 -1.241436228156089783e-02 -1.734469458460807800e-02 -2.976296469569206238e-02 -2.906299754977226257e-02 1.046726927161216736e-01 -1.113126240670681000e-02 -9.711921215057373047e-03 -2.108801528811454773e-02 -2.541363611817359924e-02 -6.713353563100099564e-03 -1.996994949877262115e-02 -1.412370707839727402e-02 -3.046709299087524414e-02 -2.330675534904003143e-02 -1.470286370022222400e-04 -3.887337818741798401e-02 -9.908745437860488892e-02 -1.073991209268569946e-01 -2.358663827180862427e-02 -4.923640564084053040e-02 -1.234877575188875198e-02 7.556571066379547119e-02 -3.337809070944786072e-02 -4.645168036222457886e-02 -2.423656284809112549e-01 8.571833372116088867e-03 -1.615716330707073212e-02 -1.529585942625999451e-02 -3.130508959293365479e-02 3.796755969524383545e-01 -2.056686952710151672e-02 -2.567181363701820374e-02 -1.693214848637580872e-02 -3.535798192024230957e-02 1.910338178277015686e-02 -2.195635996758937836e-02 1.731762290000915527e-01 -7.616644259542226791e-03 -3.035909496247768402e-02 -3.145134309306740761e-03 1.366694420576095581e-01 -2.646950259804725647e-02 -6.238091271370649338e-03 -2.016014792025089264e-02 -7.977288914844393730e-04 -2.801142260432243347e-02 -2.560892701148986816e-02 -5.719400942325592041e-02 7.553233206272125244e-02 -1.068640314042568207e-02 -1.228669472038745880e-02 -1.608484387397766113e-01 -1.004602015018463135e-01 -1.672801561653614044e-02 -1.547413319349288940e-02 -5.194750428199768066e-02 -3.122791647911071777e-02 -2.770604100078344345e-03 1.560577899217605591e-01 4.429256543517112732e-03 -2.691655047237873077e-02 -1.010803803801536560e-01 -5.325087904930114746e-02 -2.508953027427196503e-02 -1.257679704576730728e-02 -9.760074317455291748e-03 -1.852746494114398956e-02 -8.864578790962696075e-03 2.607287652790546417e-02 -1.628889329731464386e-02 -2.597439102828502655e-02 -3.422918915748596191e-02 -7.205312699079513550e-02 -7.243914902210235596e-02 -3.790457174181938171e-02 -3.803339228034019470e-02 1.834919443354010582e-03 -9.213770180940628052e-02 -3.100730245932936668e-03 -1.723967492580413818e-02 -9.282375127077102661e-02 -1.045081391930580139e-01 -1.561281736940145493e-02 -2.681023254990577698e-02 -2.714340575039386749e-02 -1.364953666925430298e-01 -4.627113416790962219e-02 -1.325019355863332748e-02 -3.000477328896522522e-03 1.133210062980651855e-01 -1.320066861808300018e-02 -3.022397123277187347e-02 -3.000719239935278893e-03 -8.122662454843521118e-02 7.923383265733718872e-02 -4.302012175321578979e-02 -7.290142122656106949e-03 -4.658841527998447418e-03 -2.132892794907093048e-02 1.516805291175842285e-01 -4.603185132145881653e-02 5.433116480708122253e-02 -8.106658607721328735e-02 -1.719900034368038177e-02 -7.382363080978393555e-02 1.928939111530780792e-02 -1.246125251054763794e-01 -1.070054154843091965e-02 1.775821745395660400e-01 -3.785962983965873718e-02 -5.139701813459396362e-02 -3.292515873908996582e-02 -1.743011027574539185e-01 -2.633512578904628754e-02 -3.680852428078651428e-02 -1.171093992888927460e-02 9.653045982122421265e-02 1.256763458251953125e+00 1.120347380638122559e-01 -3.224058449268341064e-02 -1.058913883753120899e-03 -2.893460914492607117e-02 -3.072853945195674896e-02 1.678404659032821655e-01 -4.184374958276748657e-02 -1.021494492888450623e-01 1.570184230804443359e-01 -1.103901397436857224e-02 -2.127801999449729919e-02 -9.165000915527343750e-02 3.047378268092870712e-03 2.798124551773071289e-01 -5.208244919776916504e-02 -1.190993785858154297e-01 -2.428064495325088501e-02 -4.846929013729095459e-02 -2.663893857970833778e-03 2.064541876316070557e-01 -1.242984011769294739e-01 1.060840189456939697e-01 -5.261766165494918823e-02 -6.335377693176269531e-02 -5.067577213048934937e-02 -5.633687600493431091e-02 -8.660328574478626251e-03 -5.293906107544898987e-02 -1.135129295289516449e-02 -1.802196726202964783e-02 3.082247218117117882e-03 -1.488688495010137558e-02 3.784115239977836609e-02 -2.396820299327373505e-02 3.049510344862937927e-02 -4.451691731810569763e-02 -1.532067544758319855e-02 -3.429718688130378723e-02 -4.122966527938842773e-02 -1.331021171063184738e-02 -4.113964363932609558e-02 -1.197666898369789124e-01 -1.318605709820985794e-02 -3.213430941104888916e-02 -2.549085766077041626e-02 -4.990562796592712402e-02 -6.866448372602462769e-02 -2.552110888063907623e-02 -1.723873242735862732e-02 -2.132463827729225159e-02 -3.079993464052677155e-02 -2.051215618848800659e-02 -8.312928490340709686e-03 -2.945985645055770874e-02 -3.752545453608036041e-03 -1.098663210868835449e-01 -3.225457295775413513e-02 -1.743685454130172729e-02 -1.240691822022199631e-02 -5.026044696569442749e-02 -2.027478767558932304e-03 -5.185931175947189331e-02 -6.955523788928985596e-02 -1.339887501671910286e-03 -3.129012510180473328e-02 7.009138166904449463e-02 -4.088018834590911865e-02 -3.980687819421291351e-03 -2.412659302353858948e-02 -3.240675106644630432e-02 -1.446867920458316803e-02 -2.141531743109226227e-02 3.078886494040489197e-02 -2.270801737904548645e-02 -1.874920167028903961e-02 -1.565655469894409180e-01 -1.899320818483829498e-02 -2.139938622713088989e-02 -4.850485175848007202e-02 -7.166778296232223511e-02 -3.882195055484771729e-02 -7.223783433437347412e-02 -2.215372584760189056e-02 -4.088386520743370056e-02 -1.445362530648708344e-02 -1.584370434284210205e-02 -1.531781308585777879e-04 -6.741453707218170166e-02 -2.354880794882774353e-02 -9.344731271266937256e-02 -1.409420371055603027e-02 -1.087702438235282898e-02 -5.427727475762367249e-02 7.475272566080093384e-02 -2.107661776244640350e-02 -1.184124499559402466e-02 -7.245387881994247437e-02 -3.780546784400939941e-02 -1.101310271769762039e-02 -2.042926847934722900e-02 -4.366162419319152832e-02 1.473463233560323715e-02 -8.829782903194427490e-02 3.382798135280609131e-01 -3.357278555631637573e-02 7.251659780740737915e-02 -2.690025139600038528e-03 2.091306149959564209e-01 -6.703125685453414917e-02 -1.058889925479888916e-02 -2.118716761469841003e-02 -3.373907133936882019e-02 -2.965846098959445953e-02 -1.612446643412113190e-02 6.415150314569473267e-02 -9.778908453881740570e-03 -4.960939660668373108e-02 -8.771882951259613037e-02 -1.433713082224130630e-02 5.819206591695547104e-03 -4.115810617804527283e-02 -5.288081616163253784e-02 -3.192847222089767456e-02 -2.741405507549643517e-03 -3.274603188037872314e-02 -2.163384482264518738e-02 -2.544733881950378418e-02 3.914312925189733505e-03 6.256996840238571167e-02 -2.034338103840127587e-04 -2.662326768040657043e-02 1.483491063117980957e-01 -1.018119379878044128e-01 -1.641530543565750122e-02 -8.364058099687099457e-03 -6.295862048864364624e-02
-1.757514476776123047e-02 5.906358733773231506e-02 4.675593078136444092e-01 1.072726920247077942e-01 -1.914914324879646301e-02 4.593939706683158875e-02 -3.687146678566932678e-02 2.227997966110706329e-02 -8.617457002401351929e-03 3.415150195360183716e-02 -2.616237476468086243e-02 4.427075851708650589e-03 -3.203354775905609131e-02 -4.018805455416440964e-03 -4.954329691827297211e-03 -5.449081957340240479e-02 -8.445069193840026855e-02 -2.046795561909675598e-02 -1.942782290279865265e-02 -1.052183285355567932e-02 -6.638519465923309326e-02 -4.482766985893249512e-02 -4.700380936264991760e-02 -1.603479124605655670e-02 -2.140715345740318298e-02 -2.857914566993713379e-02 -4.378031566739082336e-02 -2.277369983494281769e-02 -2.027205564081668854e-02 -1.645406894385814667e-02 -3.932539746165275574e-02 -4.019205272197723389e-02 -1.063462719321250916e-02 -8.210704475641250610e-02 1.343525014817714691e-03 -2.137856930494308472e-02 2.291865646839141846e-03 -2.336226031184196472e-02 -3.341492265462875366e-03 2.340630590915679932e-01 -8.086663484573364258e-02 -9.561657207086682320e-04 -5.688687041401863098e-02 -3.127902001142501831e-02 2.925894856452941895e-01 -7.482675462961196899e-02 -2.268997486680746078e-03 -7.390028983354568481e-02 -2.391173876821994781e-02 -4.071520641446113586e-02 7.157514244318008423e-02 5.577675104141235352e-01 2.532012462615966797e-01 1.539054065942764282e-01 -2.180665172636508942e-02 2.651657462120056152e-01 -4.834017530083656311e-02 -1.245262939482927322e-02 -4.051034804433584213e-03 -2.529368922114372253e-02 -6.342134624719619751e-02 -2.508019469678401947e-02 1.983190886676311493e-02 2.061434835195541382e-01 2.172689884901046753e-01 -2.013294771313667297e-02 5.629129335284233093e-02 -3.407590091228485107e-02 -1.495526824146509171e-02 -1.072028372436761856e-02 -2.898395620286464691e-02 -5.621611140668392181e-03 -4.502787778619676828e-04 -3.875059634447097778e-02 -8.935882896184921265e-02 -4.799997434020042419e-02 -3.859923034906387329e-02 -1.450836099684238434e-02 -1.774132996797561646e-01 -1.209385097026824951e-01 -4.624601081013679504e-02 -4.444065503776073456e-03 -4.420773312449455261e-02 -1.260717120021581650e-02 -8.650166913866996765e-03 -8.865464478731155396e-03 -6.854208558797836304e-02 -5.724624264985322952e-03 -1.698018424212932587e-02 -2.247718162834644318e-02 -1.851950772106647491e-02 -4.101483896374702454e-02 -1.024497449398040771e-01 5.340065807104110718e-03 -1.974068209528923035e-02 1.794500797986984253e-01 1.094932407140731812e-01 -4.549575597047805786e-02 -3.332484140992164612e-02 -2.696033380925655365e-02 -4.375566728413105011e-03 -3.539187833666801453e-02 -2.109740674495697021e-02 1.277609318494796753e-01 -4.776693414896726608e-03 -9.019283577799797058e-03 -6.313437130302190781e-03 -1.688238605856895447e-02 -1.161867473274469376e-02 -1.814978942275047302e-02 -3.863455727696418762e-02 3.008644096553325653e-02 4.263401776552200317e-02 -4.039627686142921448e-02 -7.112126797437667847e-03 -3.072550892829895020e-02 -5.427446216344833374e-02 -6.098362617194652557e-03 -6.120769679546356201e-02 -3.351036459207534790e-02 -4.767954349517822266e-02 -7.123850286006927490e-02 -1.523109432309865952e-02 -1.820104382932186127e-02 -2.118407338857650757e-01 -8.612436801195144653e-02 -2.559072524309158325e-02 -1.131895557045936584e-02 -3.981984034180641174e-02 -3.531045466661453247e-02 -1.241436228156089783e-02 -1.734469458460807800e-02 -2.976296469569206238e-02 -2.906299754977226257e-02 1.046726927161216736e-01 -1.113126240670681000e-02 -9.711921215057373047e-03 -2.108801528811454773e-02 -2.541363611817359924e-02 -6.713353563100099564e-03 -1.996994949877262115e-02 -1.412370707839727402e-02 -3.046709299087524414e-02 -2.330675534904003143e-02 -1.470286370022222400e-04 -3.887337818741798401e-02 -9.908745437860488892e-02 -1.073991209268569946e-01 -2.358663827180862427e-02 -4.923640564084053040e-02 -1.234877575188875198e-02 7.556571066379547119e-02 -3.337809070944786072e-02 -4.645168036222457886e-02 -2.423656284809112549e-01 8.571833372116088867e-03 -1.615716330707073212e-02 -1.529585942625999451e-02 -3.130508959293365479e-02 3.796755969524383545e-01 -2.056686952710151672e-02 -2.567181363701820374e-02 -1.693214848637580872e-02 -3.535798192024230957e-02 1.910338178277015686e-02 -2.195635996758937836e-02 1.731762290000915527e-01 -7.616644259542226791e-03 -3.035909496247768402e-02 -3.145134309306740761e-03 1.366694420576095581e-01 -2.646950259804725647e-02 -6.238091271370649338e-03 -2.016014792025089264e-02 -7.977288914844393730e-04 -2.801142260432243347e-02 -2.560892701148986816e-02 -5.719400942325592041e-02 7.553233206272125244e-02 -1.068640314042568207e-02 -1.228669472038745880e-02 -1.608484387397766113e-01 -1.004602015018463135e-01 -1.672801561653614044e-02 -1.547413319349288940e-02 -5.194750428199768066e-02 -3.122791647911071777e-02 -2.770604100078344345e-03 1.560577899217605591e-01 4.429256543517112732e-03 -2.691655047237873077e-02 -1.010803803801536560e-01 -5.325087904930114746e-02 -2.508953027427196503e-02 -1.257679704576730728e-02 -9.760074317455291748e-03 -1.852746494114398956e-02 -8.864578790962696075e-03 2.607287652790546417e-02 -1.628889329731464386e-02 -2.597439102828502655e-02 -3.422918915748596191e-02 -7.205312699079513550e-02 -7.243914902210235596e-02 -3.790457174181938171e-02 -3.803339228034019470e-02 1.834919443354010582e-03 -9.213770180940628052e-02 -3.100730245932936668e-03 -1.723967492580413818e-02 -9.282375127077102661e-02 -1.045081391930580139e-01 -1.561281736940145493e-02 -2.681023254990577698e-02 -2.714340575039386749e-02 -1.364953666925430298e-01 -4.627113416790962219e-02 -1.325019355863332748e-02 -3.000477328896522522e-03 1.133210062980651855e-01 -1.320066861808300018e-02 -3.022397123277187347e-02 -3.000719239935278893e-03 -8.122662454843521118e-02 7.923383265733718872e-02 -4.302012175321578979e-02 -7.290142122656106949e-03 -4.658841527998447418e-03 -2.132892794907093048e-02 1.516805291175842285e-01 -4.603185132145881653e-02 5.433116480708122253e-02 -8.106658607721328735e-02 -1.719900034368038177e-02 -7.382363080978393555e-02 1.928939111530780792e-02 -1.246125251054763794e-01 -1.070054154843091965e-02 1.775821745395660400e-01 -3.785962983965873718e-02 -5.139701813459396362e-02 -3.292515873908996582e-02 -1.743011027574539185e-01 -2.633512578904628754e-02 -3.680852428078651428e-02 -1.171093992888927460e-02 9.653045982122421265e-02 1.256763458251953125e+00 1.120347380638122559e-01 -3.224058449268341064e-02 -1.058913883753120899e-03 -2.893460914492607117e-02 -3.072853945195674896e-02 1.678404659032821655e-01 -4.184374958276748657e-02 -1.021494492888450623e-01 1.570184230804443359e-01 -1.103901397436857224e-02 -2.127801999449729919e-02 -9.165000915527343750e-02 3.047378268092870712e-03 2.798124551773071289e-01 -5.208244919776916504e-02 -1.190993785858154297e-01 -2.428064495325088501e-02 -4.846929013729095459e-02 -2.663893857970833778e-03 2.064541876316070557e-01 -1.242984011769294739e-01 1.060840189456939697e-01 -5.261766165494918823e-02 -6.335377693176269531e-02 -5.067577213048934937e-02 -5.633687600493431091e-02 -8.660328574478626251e-03 -5.293906107544898987e-02 -1.135129295289516449e-02 -1.802196726202964783e-02 3.082247218117117882e-03 -1.488688495010137558e-02 3.784115239977836609e-02 -2.396820299327373505e-02 3.049510344862937927e-02 -4.451691731810569763e-02 -1.532067544758319855e-02 -3.429718688130378723e-02 -4.122966527938842773e-02 -1.331021171063184738e-02 -4.113964363932609558e-02 -1.197666898369789124e-01 -1.318605709820985794e-02 -3.213430941104888916e-02 -2.549085766077041626e-02 -4.990562796592712402e-02 -6.866448372602462769e-02 -2.552110888063907623e-02 -1.723873242735862732e-02 -2.132463827729225159e-02 -3.079993464052677155e-02 -2.051215618848800659e-02 -8.312928490340709686e-03 -2.945985645055770874e-02 -3.752545453608036041e-03 -1.098663210868835449e-01 -3.225457295775413513e-02 -1.743685454130172729e-02 -1.240691822022199631e-02 -5.026044696569442749e-02 -2.027478767558932304e-03 -5.185931175947189331e-02 -6.955523788928985596e-02 -1.339887501671910286e-03 -3.129012510180473328e-02 7.009138166904449463e-02 -4.088018834590911865e-02 -3.980687819421291351e-03 -2.412659302353858948e-02 -3.240675106644630432e-02 -1.446867920458316803e-02 -2.141531743109226227e-02 3.078886494040489197e-02 -2.270801737904548645e-02 -1.874920167028903961e-02 -1.565655469894409180e-01 -1.899320818483829498e-02 -2.139938622713088989e-02 -4.850485175848007202e-02 -7.166778296232223511e-02 -3.882195055484771729e-02 -7.223783433437347412e-02 -2.215372584760189056e-02 -4.088386520743370056e-02 -1.445362530648708344e-02 -1.584370434284210205e-02 -1.531781308585777879e-04 -6.741453707218170166e-02 -2.354880794882774353e-02 -9.344731271266937256e-02 -1.409420371055603027e-02 -1.087702438235282898e-02 -5.427727475762367249e-02 7.475272566080093384e-02 -2.107661776244640350e-02 -1.184124499559402466e-02 -7.245387881994247437e-02 -3.780546784400939941e-02 -1.101310271769762039e-02 -2.042926847934722900e-02 -4.366162419319152832e-02 1.473463233560323715e-02 -8.829782903194427490e-02 3.382798135280609131e-01 -3.357278555631637573e-02 7.251659780740737915e-02 -2.690025139600038528e-03 2.091306149959564209e-01 -6.703125685453414917e-02 -1.058889925479888916e-02 -2.118716761469841003e-02 -3.373907133936882019e-02 -2.965846098959445953e-02 -1.612446643412113190e-02 6.415150314569473267e-02 -9.778908453881740570e-03 -4.960939660668373108e-02 -8.771882951259613037e-02 -1.433713082224130630e-02 5.819206591695547104e-03 -4.115810617804527283e-02 -5.288081616163253784e-02 -3.192847222089767456e-02 -2.741405507549643517e-03 -3.274603188037872314e-02 -2.163384482264518738e-02 -2.544733881950378418e-02 3.914312925189733505e-03 6.256996840238571167e-02 -2.034338103840127587e-04 -2.662326768040657043e-02 1.483491063117980957e-01 -1.018119379878044128e-01 -1.641530543565750122e-02 -8.364058099687099457e-03 -6.295862048864364624e-02
